,0,1,2,3,4,5,6,7,8,9,10,11,12,13,14,15,16,17,18,19,20,21,22,23,24,25,26,27,28,29,30,31,32,33,34,35,36,37,38,39,40,41,42,43,44,45,46,47,48,49,50,51,52,53,54,55,56,57,58,59,60,61,62,63
NAT2,-0.0038311882,-0.004687159,-0.0009970192,0.0005026171,0.0010033764,0.00089373207,0.00011198445,0.00045966823,-0.002244776,-0.006796242,-0.0015253711,4.9127786e-05,-0.00064755505,7.917956e-09,4.0516447e-08,6.8455144e-09,1.3338384e-09,-1.4089083e-07,-0.0016599856,-0.00386621,0.0022936747,-0.0033727665,0.003856193,0.0005653677,0.0022386017,0.0014729842,-0.0025315129,9.859111e-05,0.0011030573,-0.003807976,0.004180737,0.005537537,-0.005537738,0.0041800616,0.0038080725,-0.0011027132,-9.9069955e-05,-0.0025316852,0.0014729116,0.0022389672,0.0005655471,-0.0038560187,0.0033727526,0.0022941893,-0.0038660956,-0.0016600922,-1.8677998e-08,-3.461621e-08,-1.8834683e-08,2.604639e-08,1.6743016e-08,-0.0006475468,-4.8976166e-05,-0.00152527,0.00679623,0.0022449405,0.00045936598,-0.00011207742,0.0008936319,0.0010034129,0.000502651,-0.0009970148,-0.0056842617,-0.002082453
HP:0000007,0.062367186,0.07630151,0.025586233,-0.017660603,-0.039453164,-0.015829246,0.0136118,-0.004053466,0.020429676,0.05736657,0.07154745,0.0002570862,-0.00088873674,1.0048557e-07,-1.03707634e-07,-6.3920325e-08,-1.0761818e-07,1.4640743e-06,-8.464481e-05,0.032068726,-0.010556788,-0.0002411437,-0.008176225,-0.020062802,-0.010044208,-0.012757766,0.006626843,-0.02429806,-0.003601481,0.019550875,-0.028776761,-0.008124185,-0.00812071,0.02877425,0.019551624,-0.003599493,-0.024299871,-0.0066266693,0.012754976,0.010045289,0.02006282,-0.008173916,-0.00024161501,0.010560045,-0.032068178,8.3435305e-05,-4.550235e-06,4.4064896e-07,-2.0767439e-07,9.6029325e-08,3.6905547e-08,0.00088738883,0.00024932687,-0.07154643,0.057367995,0.020432282,0.004049461,0.013611826,0.015825909,0.039453328,0.017661555,-0.025586203,-0.09253311,-0.0338999
HP:0001939,0.013545263,0.016571634,0.0002025282,0.0010012873,0.0031753418,-0.0012408495,-0.0035394377,-0.0014940966,0.007096567,0.021854075,-0.0078653805,-0.0003024008,0.003432938,-5.5781356e-08,-1.8518774e-07,-6.7941914e-09,5.8902604e-08,3.8736025e-07,0.008272173,0.011717625,-0.0087533,0.016106563,-0.01651013,0.0016936116,-0.008266679,-0.004065442,0.010284063,0.004822062,-0.0042699534,0.013108627,-0.012707506,-0.023185955,-0.023187561,0.012704997,0.013108909,-0.0042687613,0.004820245,-0.010284841,0.0040657083,0.008268147,-0.001692728,-0.016509766,0.016106613,0.008754883,-0.011717135,-0.008272406,9.024209e-07,-2.5539512e-07,-3.6861746e-08,9.447932e-08,8.033095e-08,-0.0034326103,-0.00029994716,0.007865801,0.021853626,0.0070968745,0.0014933893,-0.0035398474,0.0012409678,-0.0031751941,-0.0010013394,-0.00020249948,-0.020096906,-0.007362584
AARS1,-0.020272722,-0.024802122,0.00048322603,-0.00280381,-0.018940948,-0.004950665,0.013433177,0.0054976977,-0.030973759,0.006504533,-0.0025913387,0.0035723795,0.014372357,-1.1435464e-07,-3.0288402e-07,-1.4503884e-07,7.8988805e-08,1.12090945e-07,0.0028638274,-0.026355272,-0.0028737278,0.008869171,-0.009124345,0.009808871,0.0067284093,-0.012806485,0.004835538,0.011800817,0.0023682457,-0.010284864,-0.0017765546,-0.0002333604,0.00023301,-0.0017774107,0.010284581,-0.0023674576,-0.011800119,0.004836155,-0.0128071485,0.006728359,0.009808011,0.009125866,-0.0088693835,-0.0028707543,-0.026355436,0.002863235,3.0056128e-06,-3.0367818e-07,-4.2451646e-08,-6.602913e-08,-1.1356343e-07,0.014372529,-0.0035717303,-0.00259084,-0.0065052593,0.030974029,0.005493878,-0.01343506,-0.004948121,-0.018940715,-0.0028041387,0.0004833406,-0.030078292,-0.011019326
HP:0002460,0.014076681,0.017221741,-0.00032683555,0.000896221,0.0108583225,0.003561332,-0.009966091,-0.0050314087,0.029073358,-0.0046304045,0.00074337365,-0.0028733416,-0.013215078,1.6027282e-07,3.673532e-07,1.2228557e-07,-7.7585e-08,-3.1959885e-08,-0.008643309,0.014532356,-0.017522004,-0.016569378,0.0105887465,0.006368786,-0.013737655,-0.024309447,0.00087708834,0.0044385786,0.006593305,0.027841255,0.004428081,-0.007961606,-0.007962555,-0.004430484,0.027839627,0.006594137,0.0044339923,-0.0008794768,0.024311215,0.013736698,-0.0063703097,0.010589699,-0.016569385,0.017523425,-0.014530527,0.008643319,2.8246552e-06,-3.0091462e-07,-3.608562e-08,-1.0611181e-07,-1.3858143e-07,0.013214908,-0.0028721537,-0.0007428542,-0.0046308413,0.029073868,0.005027463,-0.009967676,-0.003559321,-0.010858111,-0.00089643564,0.0003269045,-0.02088532,-0.0076514357
HP:0009886,0.005418108,0.006628653,-0.00019955914,0.0008097547,0.0043598786,0.0005681985,-0.0011612475,-0.00074007316,0.0014856744,-0.0020534203,0.00097380835,-0.00018671759,-0.00029893348,-1.4424653e-09,-2.1421304e-08,8.732199e-09,6.270354e-10,-7.718619e-08,0.0011132227,0.0031630723,0.0036856104,-0.005571255,-0.0007117705,-0.0019217657,-0.0010234045,0.002354113,0.0007743016,-0.0030741915,-0.00043996805,0.0021360507,-0.001176955,0.0014068811,0.0014067265,0.0011769409,0.0021360673,-0.00043967948,-0.003074154,-0.0007741008,-0.0023543919,0.0010231542,0.0019214527,-0.0007116037,-0.005571361,-0.003685168,-0.0031636117,-0.0011133234,-7.1269255e-08,2.7454758e-08,-5.3598077e-09,2.350977e-09,1.8788961e-09,0.0002989075,-0.00018699556,-0.0009737902,-0.002053477,0.0014857097,0.0007399543,-0.0011613558,-0.00056796183,-0.0043598646,-0.000809815,0.00019957667,-0.00803876,-0.002945039
HP:0001268,0.015796378,0.019325677,-0.0005470915,0.002487449,0.014612899,0.0045450535,-0.011882013,-0.005124703,0.028650543,-0.002364532,-0.0007521414,-0.0033724245,-0.012576288,3.8707377e-08,2.5904365e-07,9.255646e-08,-5.149171e-08,-3.9974996e-08,-0.0012613523,0.021697937,0.0021346416,-0.0017575305,0.008125164,-0.013763478,-0.0009832247,0.02358989,-0.0036853673,-0.011607332,-0.0020248129,-0.0071675424,0.0015350272,-0.001520349,-0.0015206389,-0.001534878,-0.007167533,-0.0020247179,-0.011604254,0.0036871203,-0.02359134,0.0009836105,0.013763335,0.008126512,-0.0017576675,-0.0021322982,-0.021697832,0.0012608918,3.0738124e-06,-3.644197e-07,-2.9424516e-08,-5.462846e-08,-5.250257e-08,0.012576559,-0.0033710643,0.00075271935,-0.0023652993,0.028650837,0.005121181,-0.011883726,-0.0045428607,-0.014612675,-0.002487719,0.0005471743,-0.023436803,-0.008586191
HP:0002599,0.0038311773,0.0046871635,-0.00013216352,0.0005481662,0.004271162,0.0006807458,-0.002611367,-0.0012364616,0.0069724885,-0.0014824872,0.000415715,-0.0008859518,-0.003352545,2.2897828e-08,6.579782e-08,2.9718997e-08,-1.4327989e-08,-3.6205694e-08,-0.0003627555,0.006733774,0.000859208,-0.0017608455,0.0019480287,-0.0030218582,-0.0008764777,0.0038037437,-0.001386183,-0.0028859659,-0.0002629591,0.0019863995,0.00055366533,-0.00045055887,-0.00045066408,-0.0005538171,0.0019863525,-0.00026277662,-0.0028856539,0.0013863938,-0.003803916,0.0008765121,0.0030216982,0.0019483971,-0.0017608922,-0.0008584275,-0.006733822,0.0003626091,7.221226e-07,-7.18664e-08,-9.200427e-09,-1.5571427e-08,-2.0005476e-08,0.0033526088,-0.00088579487,-0.0004155992,-0.0014826547,0.0069725784,0.0012355675,-0.002611712,-0.000680247,-0.004271114,-0.0005482431,0.00013218472,-0.005684259,-0.0020824592
HP:0001265,0.023925737,0.02927134,-0.0005528126,0.0024043452,0.016002195,0.0033219643,-0.011009815,-0.0047139134,0.033938404,0.00042917393,-0.0020986735,-0.0050359853,-0.015324531,1.6538571e-07,4.0215528e-07,1.0730591e-07,-6.967146e-08,6.4024796e-08,-0.0053872718,0.019983176,-0.010018643,-0.00788518,0.0098811835,-0.0011214631,-0.0085286535,-0.007055478,-0.0013210991,-0.0014540625,0.002262363,0.0135710025,0.0010959539,0.0007455213,0.0007456357,-0.0010966801,0.0135706505,0.0022630133,-0.001455619,0.0013202698,0.0070559764,0.008528507,0.0011205485,0.009882399,-0.007885154,0.010020786,-0.019981908,0.0053871023,3.7732736e-06,-4.1175963e-07,-4.3616858e-08,-1.13185116e-07,-1.5497233e-07,0.015324719,-0.0050338963,0.0020995857,0.00042863959,0.033938818,0.0047094,-0.011011693,-0.0033198756,-0.016001912,-0.0024046532,0.0005528886,-0.035498213,-0.013004929
HP:0100876,0.005418121,0.006628649,-2.0055566e-05,0.00091770664,0.006616623,0.0013796615,-0.0026154194,0.00078381225,0.0015406217,-0.0031991624,0.0030466812,-0.00048880075,-0.0012634925,1.8484383e-09,-2.911809e-08,8.5363e-09,-4.7328004e-09,-7.546279e-08,0.0014683836,0.0071276254,0.006085668,0.00018672901,0.0012063184,-0.0049469555,0.001604163,0.0045060436,-0.0043998095,-0.004804596,-0.00066641293,0.00012030577,-0.0012934833,0.0011527899,0.0011529261,0.0012935479,0.00012049718,-0.00066631596,-0.0048039537,0.004400258,-0.0045064106,-0.0016040481,0.0049469587,0.0012066399,0.00018668313,-0.006084728,-0.007128187,-0.0014686434,-7.7379724e-08,9.249709e-09,-2.2009964e-08,9.384618e-09,1.6968782e-09,0.0012635816,-0.0004894705,-0.0030467312,-0.0031992402,0.0015403634,-0.00078381476,-0.002615754,-0.0013792425,-0.0066165994,-0.0009178074,2.0075988e-05,-0.008038759,-0.0029450376
HP:0007340,0.0140766725,0.017221745,-0.0003944477,0.0012084059,0.011226771,0.0049844435,-0.012067013,-0.0093723405,0.034373164,0.0011643618,-0.0033024282,-0.0044086617,-0.014659692,1.9248596e-07,3.9771803e-07,1.6445563e-07,-1.1020188e-07,1.5864543e-08,-0.0065134927,0.014858864,-0.016768927,-0.011301674,0.0076226024,0.0006231927,-0.012244576,-0.011645869,0.0035581675,0.0029878537,0.004485661,0.017339997,0.01146546,-0.006407733,-0.0064081335,-0.011466858,0.017338302,0.00448634,0.0029851266,-0.0035594553,0.011647081,0.012244229,-0.00062436366,0.00762367,-0.011301901,0.016770376,-0.014857042,0.006513585,3.77284e-06,-4.0173194e-07,-2.6037435e-08,-1.353024e-07,-1.7302719e-07,0.014659786,-0.004406363,0.003303335,0.001163646,0.034374326,0.009367779,-0.0120688975,-0.004982067,-0.0112264855,-0.0012086375,0.00039451034,-0.02088532,-0.0076514366
HP:0002521,0.013813552,0.016899811,-0.00036850572,0.0023971824,0.015124408,0.003950232,-0.0097226165,-0.0015937779,0.01806796,-0.0065315915,0.003722846,-0.0025175246,-0.010060971,6.070009e-08,1.5662566e-07,4.942732e-08,-2.2853774e-08,-1.5595283e-07,0.00077375554,0.023284487,0.010604294,0.002826034,0.010005119,-0.0152452085,0.0026780958,0.021759907,-0.009521575,-0.01493621,-0.004721643,-0.0045902384,-0.00458393,0.003101588,0.003102317,0.0045843255,-0.004589287,-0.0047213715,-0.014933176,0.009523319,-0.021761507,-0.0026774677,0.01524524,0.010006387,0.0028259724,-0.010601579,-0.0232851,-0.0007744278,1.8984209e-06,-1.9811414e-07,-4.4619764e-08,-3.6864037e-08,-3.5485833e-08,0.010061296,-0.002517641,-0.0037226167,-0.0065321154,0.018067753,0.0015917451,-0.00972395,-0.0039484766,-0.015124262,-0.0023974446,0.00036857437,-0.020494893,-0.0075084134
HP:0001332,0.02314618,0.028317615,-0.00037972257,0.0028365646,0.018091409,0.0059060836,-0.017578984,-0.010191416,0.050184675,-0.00027459767,-0.0012176797,-0.005764368,-0.017671386,9.801005e-08,4.2610046e-07,1.1514722e-07,-4.757267e-08,4.6584244e-08,-0.00075795077,0.032662094,-0.0016864343,0.00927436,0.012207562,-0.014838179,-0.0032302174,0.022365045,-0.00034758192,-0.009577477,-0.0051498823,-0.009063721,0.0015516263,0.008223599,0.008224003,-0.001550768,-0.009063249,-0.005149707,-0.009574373,0.0003491416,-0.022366488,0.0032314155,0.014838606,0.012209519,0.009274386,0.0016898026,-0.03266104,0.0007573676,4.6065934e-06,-5.729424e-07,-5.5758824e-09,-1.433815e-07,-5.8092617e-08,0.017671932,-0.005762096,0.0012187541,-0.0002758593,0.05018563,0.010184889,-0.017581632,-0.005902797,-0.018091014,-0.002836945,0.00037981372,-0.034341633,-0.012581182
HP:0001337,0.025268387,0.030913977,-0.00055056065,0.0029852241,0.016049413,0.002842471,-0.012490006,-0.008714756,0.037603643,0.0011121659,-0.0030415438,-0.004101182,-0.0144109195,5.747792e-08,3.517165e-07,1.6481926e-07,-7.6583014e-08,1.0654884e-07,-0.0055077383,0.008283299,-0.0026879536,0.001536191,0.010470232,-0.01220268,0.0011906715,0.033440605,-0.0069227023,-0.019757848,-0.007208696,0.019220222,-0.0025203405,-0.0026852079,-0.002685927,0.002518273,0.019220734,-0.0072074053,-0.019754983,0.006924061,-0.033441864,-0.0011899429,0.0122025125,0.010470974,0.0015359756,0.0026884815,-0.008282698,0.005507826,3.896544e-06,-3.783319e-07,-7.002598e-08,-3.9978406e-08,-1.2628752e-07,0.014411008,-0.0040989527,0.0030423428,0.001111452,0.037604596,0.008709718,-0.012491778,-0.0028400703,-0.016049076,-0.002985515,0.00055066054,-0.037490293,-0.013734729
HP:0000006,0.05916666,0.072385944,-0.0013440214,0.0035491213,-0.011357393,0.028678987,-0.013752853,-0.051393613,-0.0054519116,-0.00050819665,-0.0030037193,0.065644845,-0.0025329345,1.3776157e-07,1.3478054e-07,-7.8660086e-08,-8.17369e-08,-2.9972916e-06,0.0019662657,0.0010926076,0.00022262374,-0.007835987,-0.005060247,0.015151258,-0.027908957,0.004967371,-0.018335802,-0.019543715,-0.0299623,0.0033588645,0.004111213,-0.018838588,-0.018838914,-0.0041119917,0.0033582167,-0.029962806,-0.01954394,0.018335978,-0.004968473,0.02790803,-0.01515248,-0.005060326,-0.007836327,-0.0002226679,-0.0010928845,-0.0019664501,1.8982772e-06,1.7741785e-07,3.753621e-08,-7.8952255e-08,-2.4241893e-07,0.0025280763,0.065645434,0.0029933376,-0.0005135513,-0.0054452154,0.051396564,-0.013752945,-0.028674997,0.011357284,-0.0035488536,0.0013438874,-0.087784596,-0.03216023
HP:0001315,0.019155927,0.023435825,-0.00045375898,0.0022578482,0.012746833,0.002559605,-0.008193014,-0.0030705836,0.022836857,-0.0053482275,0.0016595684,-0.0036452948,-0.009433989,1.1997923e-07,1.9860627e-07,7.0423724e-08,-4.938188e-08,-4.814015e-08,-0.0029840232,0.013927403,-0.0034387764,-0.0057264594,0.0076491935,-0.00064588856,-0.0029025276,-0.006476679,-0.0011224627,0.00034494238,0.0025220711,0.012645807,-0.000476143,0.0015791915,0.0015791584,0.00047550994,0.012645749,0.002522661,0.00034354298,0.0011216771,0.0064772945,0.0029024403,0.0006452356,0.0076499805,-0.005726337,0.0034403196,-0.013926861,0.002983891,1.9234749e-06,-2.18278e-07,-2.6276297e-08,-6.720178e-08,-8.1492345e-08,0.00943414,-0.003644851,-0.001658987,-0.0053485506,0.022837007,0.003067554,-0.008194258,-0.0025579878,-0.012746643,-0.0022580675,0.00045380363,-0.028421318,-0.010412274
HP:0008944,0.009384446,0.01148116,-0.00019943714,0.00018524192,0.007633609,0.002097969,-0.008091377,-0.005402404,0.025004523,-0.0010165861,-0.0005616521,-0.0020841837,-0.008368626,1.06413545e-07,2.0270028e-07,1.2128486e-07,-7.597276e-08,2.301152e-08,-0.003860676,0.014136165,-0.011954551,-0.018470382,0.001193331,0.0057834666,-0.019137742,-0.012617296,0.0021662384,0.00015471973,0.0019360288,0.022681441,0.006898875,-0.0038138456,-0.0038145573,-0.0069009857,0.022679728,0.0019368401,0.00015141828,-0.0021677015,0.012618441,0.019136839,-0.0057849777,0.0011941899,-0.018470682,0.011956087,-0.014135287,0.003860628,2.0876657e-06,-1.7148773e-07,-4.0776428e-08,-7.634395e-08,-1.5974827e-07,0.008368447,-0.0020830992,0.00056210376,-0.0010170732,0.025005156,0.005399001,-0.008092571,-0.002096368,-0.007633428,-0.00018539988,0.00019949654,-0.013923537,-0.0051009506
HP:0030903,0.0038311868,0.004687164,-0.00011744513,0.00046012737,0.0015464834,0.0009994195,-0.002669466,-0.00053085573,0.005013593,-0.0013845353,0.0002923446,-0.0006410452,-0.0017168265,1.8380097e-08,3.029489e-08,1.1407177e-08,-9.8327675e-09,8.7357634e-08,-0.0019751294,0.0028432775,0.0018559466,0.0010228171,0.0026194134,-0.0012594236,-0.002467056,0.0021894332,-0.0026143042,-0.0038898254,0.00055934454,0.0032346717,0.0006927693,-0.0017328312,-0.0017329762,-0.00069307856,0.00323442,0.00055946555,-0.0038897607,0.0026144716,-0.0021895617,0.0024670984,0.0012592927,0.0026195764,0.0010227202,-0.001855689,-0.0028433893,0.001975065,3.3945335e-07,-2.1482562e-08,-1.0361056e-08,-3.6683778e-09,-2.9724907e-08,0.0017168333,-0.0006409793,-0.00029225173,-0.0013846618,0.0050135492,0.0005302513,-0.0026698038,-0.0009989522,-0.001546447,-0.0004601673,0.00011745575,-0.0056842635,-0.002082462
HP:0002063,0.016254341,0.019885957,-0.0004152814,0.002330266,0.013642557,0.0035493225,-0.012498592,-0.0078471005,0.03502965,-0.002985795,-0.00022385146,-0.003699376,-0.01394544,3.3689442e-08,2.7605017e-07,1.1293839e-07,-8.4386464e-08,-7.318651e-08,-0.0023975053,0.024084022,-0.0025793226,-0.0044215564,0.0096726995,-0.01038345,-0.0077562826,0.01593972,-0.0023868878,-0.010485614,-0.00011271208,0.004898359,0.007940312,-0.0043046633,-0.004305435,-0.00794126,0.0048971055,-0.00011240042,-0.010484324,0.0023878077,-0.01594036,0.007756464,0.010382799,0.009674119,-0.004421702,0.0025817067,-0.024083372,0.002397105,3.3886377e-06,-3.9584e-07,-4.9892545e-08,-7.980391e-08,-6.179914e-08,0.0139455935,-0.0036979176,0.00022443586,-0.002986685,0.035030372,0.0078425305,-0.012500293,-0.0035469085,-0.013642264,-0.0023305146,0.00041536728,-0.024116281,-0.008835114
HP:0002059,0.019535288,0.023899946,-0.00029154122,0.002026789,0.015128387,0.0035868082,-0.011440732,-0.004339233,0.027327815,-0.0049017547,0.0030298089,-0.0034758747,-0.010633822,4.8604186e-08,1.7297712e-07,7.8407396e-08,-4.427797e-08,-1.296531e-07,0.0020180845,0.02210694,0.0075226417,0.0060434053,0.007739601,-0.015772304,0.00030298953,0.025647793,-0.00354001,-0.013387731,-0.00974836,0.0007261585,-0.004517122,0.0024175965,0.0024179493,0.0045169587,0.000727248,-0.009747788,-0.013384828,0.0035415476,-0.025649318,-0.00030197034,0.015772535,0.007740858,0.006043184,-0.007520219,-0.022107212,-0.0020185604,2.3110633e-06,-2.568416e-07,-5.643728e-08,-5.754689e-08,-3.15617e-08,0.010634073,-0.0034755087,-0.0030293209,-0.004902396,0.027328024,0.0043358067,-0.011442312,-0.003584724,-0.015128165,-0.002027051,0.0002916227,-0.028984172,-0.010618488
HP:0002133,0.015083397,0.018453395,-0.00038992986,0.002437923,0.014879439,0.0036173528,-0.009461822,-0.002403127,0.020592887,-0.0057680923,0.0025756413,-0.0026913048,-0.010342699,7.015877e-08,2.0682324e-07,8.3477495e-08,-3.9723638e-09,-7.4779564e-08,-0.0012045036,0.016694617,0.009902038,0.0028891936,0.010511794,-0.015162684,0.004223664,0.029612599,-0.011359783,-0.019170519,-0.0072893733,-0.0020923454,-0.006411112,0.0068094255,0.0068096127,0.006411134,-0.002091091,-0.00728886,-0.019166762,0.011361831,-0.029614478,-0.0042231246,0.015162808,0.010512846,0.00288908,-0.009900103,-0.016695218,0.001204026,2.087083e-06,-1.9004129e-07,-4.4879755e-08,-1.9971802e-08,-4.1848246e-08,0.010342922,-0.00269109,-0.0025753193,-0.0057686316,0.02059282,0.002400616,-0.0094631715,-0.0036156168,-0.014879272,-0.0024381808,0.00038999476,-0.022378968,-0.008198639
HP:0003438,0.006635802,0.008118404,-0.0001430544,0.00085294107,0.0055252584,0.0018602822,-0.005759382,-0.0033652103,0.015991215,-0.0003713097,-0.00035437115,-0.0017506316,-0.0052182595,5.2503605e-08,1.03834786e-07,6.0497584e-08,-3.9521694e-08,3.2646522e-08,-0.00096082885,0.010247679,-0.003678596,-0.0026482004,0.003449269,-0.001688921,-0.0046750787,-0.001240661,0.0008318185,-0.0011346581,0.0014107818,0.008524641,0.0029472169,-0.0013638262,-0.0013641935,-0.0029480364,0.008524048,0.0014111951,-0.0011354152,-0.0008321376,0.0012409461,0.004675103,0.0016886276,0.0034498312,-0.0026482793,0.0036796697,-0.0102472,0.0009606886,1.332812e-06,-1.457317e-07,-1.49006745e-08,-3.4978722e-08,-5.303963e-08,0.005218319,-0.001749956,0.00035469318,-0.0003716705,0.015991557,0.0033631283,-0.005760239,-0.0018591877,-0.0055251187,-0.0008530582,0.00014309074,-0.009845431,-0.0036069201
HP:0002188,0.011493559,0.014061498,-0.00030948315,0.0015053358,0.011372006,0.0024714852,-0.005054474,-1.6721897e-05,0.0067693163,-0.0066525666,0.0041033123,-0.0008943151,-0.0042761737,1.8636378e-08,2.3128566e-08,7.66493e-09,-2.199889e-09,-1.9700055e-07,0.0021969604,0.014196096,0.009695461,-0.00063539896,0.004079362,-0.009289195,0.0042243814,0.011905432,-0.00616054,-0.00843004,-0.0028510315,-0.0012264673,-0.0034197052,0.0034941153,0.003494317,0.0034199057,-0.0012258084,-0.002850813,-0.008428387,0.0061615068,-0.011906298,-0.0042241267,0.009289211,0.0040800865,-0.0006353492,-0.009693691,-0.01419693,-0.0021974263,4.732416e-07,-3.0653524e-08,-4.094654e-08,-1.4527039e-08,2.4179307e-09,0.00427632,-0.00089509785,-0.004103347,-0.006652823,0.00676903,1.6103886e-05,-0.0050551197,-0.0024705788,-0.011371949,-0.0015055024,0.00030954188,-0.017052786,-0.0062473724
HP:0003596,0.020452918,0.025022617,-0.0005075969,-9.909831e-05,0.0074803317,0.005007958,-0.014981338,-0.011397835,0.043194763,0.00056323875,-0.0045372806,-0.00076389936,-0.0106608905,1.4945729e-07,3.3542062e-07,5.1300233e-08,-4.0543583e-08,1.5408938e-07,-0.008074325,0.005366269,-0.02244523,-0.0130960895,0.0034850752,0.01654425,-0.01599741,-0.030865256,0.0046579214,0.007621195,-0.0015433849,0.026127925,0.0048285564,-0.008448742,-0.008450705,-0.004831189,0.026125843,-0.0015431449,0.007615485,-0.0046610786,0.030867133,0.015996126,-0.016545698,0.003485356,-0.013095772,0.022445401,-0.0053641764,0.008074839,3.2302612e-06,-3.7311486e-07,-8.672987e-09,-4.6421082e-08,-7.625348e-08,0.01066046,-0.00076134165,0.0045377975,0.00056232314,0.043196015,0.011392026,-0.014983379,-0.0050050206,-0.0074800416,9.889762e-05,0.0005076789,-0.030345673,-0.01111726
HP:0003581,0.021158397,0.025885718,-0.0003174916,0.0007914826,-0.01269105,0.007944725,-0.013909043,-0.0041869152,0.019123953,0.009396987,-0.00844948,-0.0017806353,-0.010072789,9.278843e-08,4.255337e-07,1.129807e-07,-9.6207565e-08,7.167211e-07,-0.014611107,-0.005957539,-0.013106131,-0.01185951,0.0053307987,0.007109607,-0.010927076,-0.0014212773,-0.0041591898,-0.008171992,-0.0022588882,0.019453507,0.004625165,-0.013397962,-0.013400166,-0.004627466,0.01945202,-0.0022584524,-0.008173502,0.004158396,0.0014213746,0.010926121,-0.0071106646,0.005330757,-0.011859577,0.013104896,0.0059584104,0.01461151,3.2758255e-06,-2.5747715e-07,1.4697541e-08,-4.915548e-08,-1.632403e-07,0.010072389,-0.0017771777,0.008450245,0.0093964785,0.019124156,0.004184942,-0.01391094,-0.007942471,0.012691251,-0.0007914009,0.00031745218,-0.031392377,-0.011500737
HP:0100710,0.01532474,0.018748652,-0.00058962125,0.0026999265,0.016761353,0.0030273516,-0.008323662,-0.0007847473,0.014719065,-0.0032578302,0.0005356834,-0.0024426766,-0.010815527,2.0079918e-08,2.5855647e-07,7.392098e-08,-3.3351483e-08,-1.5614157e-07,-0.000610765,0.019324865,0.008134198,-0.00029763937,0.0075544757,-0.012370786,0.0017759623,0.021539621,-0.0076628122,-0.0116487,-0.013922161,-0.006650375,0.00036084355,-0.0022806518,-0.0022805566,-0.00036032096,-0.0066495542,-0.013922065,-0.011645889,0.0076641943,-0.02154105,-0.0017755572,0.012370697,0.007555484,-0.00029772523,-0.008131955,-0.019325495,0.0006102139,2.353848e-06,-2.4615125e-07,-3.4654988e-08,-5.1175185e-08,-6.663285e-09,0.01081578,-0.0024420205,-0.000535444,-0.0032582434,0.014718794,0.0007831572,-0.008324775,-0.0030258924,-0.016761206,-0.0027001996,0.0005897092,-0.022737041,-0.008329832
HP:0200134,0.012414466,0.01518815,-0.00037191808,0.0024037575,0.016095923,0.0042617097,-0.010277947,-0.002428596,0.019740866,-0.007285985,0.0039896187,-0.0021924155,-0.011074951,7.160888e-08,1.8775306e-07,7.0430445e-08,-2.083374e-08,-1.6795522e-07,0.0004043123,0.0272004,0.011405146,0.0009745416,0.011486534,-0.017660264,0.0025181398,0.026860438,-0.012469735,-0.019194294,-0.006469346,-0.0075319405,-0.004801154,0.005253286,0.0052537397,0.004801536,-0.007531001,-0.0064691133,-0.019190574,0.012471917,-0.026862474,-0.0025176925,0.01766027,0.011488072,0.00097448425,-0.011401891,-0.027201094,-0.00040514514,2.0820519e-06,-1.8678637e-07,-6.075755e-08,-2.6826953e-08,-4.641306e-08,0.011075264,-0.00219253,-0.0039894735,-0.0072866306,0.019740745,0.002426355,-0.010279323,-0.0042598066,-0.016095774,-0.0024040353,0.00037199634,-0.01841911,-0.0067479336
HP:0007018,0.02314618,0.028317612,-0.0009167362,0.003604304,0.019156698,0.0028349366,-0.0074599315,0.0006862506,0.00780548,-0.00426793,-5.1262585e-05,-0.001711202,-0.01051928,1.08084095e-07,3.261448e-07,1.4138729e-07,1.2575049e-08,-2.1736807e-07,0.00064558897,0.017748697,0.016335743,2.7258968e-05,0.009096513,-0.016404195,0.0064116213,0.03467012,-0.010306111,-0.017105455,-0.012133888,-0.031906076,0.0006461558,0.0082750395,0.008274393,-0.0006442725,-0.031905413,-0.012134665,-0.017099822,0.010309274,-0.03467264,-0.006411736,0.016404454,0.009097571,2.7256627e-05,-0.016333612,-0.017750096,-0.0006463943,2.2700995e-06,-1.4590059e-07,1.8439993e-08,-6.239298e-08,7.037645e-08,0.01051973,-0.0017107137,5.1345472e-05,-0.0042683873,0.007804977,-0.00068678235,-0.007460756,-0.0028336511,-0.019156586,-0.0036045967,0.000916823,-0.034341607,-0.012581202
HP:0002376,0.023146186,0.028317615,-0.0004726667,0.001565231,0.010723459,0.00012581982,-0.008721543,-0.0053879432,0.030687483,-0.0051238765,0.0006962878,-0.0040411097,-0.010020159,6.281909e-08,1.9497809e-07,5.656083e-08,-1.9825393e-08,-2.8708351e-08,0.0018661798,0.020235954,0.0094117485,0.00850775,0.0070817997,-0.012448551,0.00333918,0.020351915,-0.0010522491,-0.0079308925,-0.0026798784,-0.0089422865,0.0021917124,0.0060931467,0.006093965,-0.0021906104,-0.008941766,-0.0026797052,-0.007928058,0.0010538134,-0.020353159,-0.0033382333,0.012449089,0.0070828716,0.008507713,-0.009409463,-0.020236406,-0.0018665913,2.4433796e-06,-2.784597e-07,-9.219325e-09,-7.5359004e-08,-4.3455636e-08,0.010020584,-0.004040447,-0.0006956921,-0.0051245485,0.030687941,0.005383646,-0.008722608,-0.0001240708,-0.010723268,-0.0015654542,0.00047270377,-0.03434162,-0.012581192
HP:0002317,0.017133579,0.020961637,-0.00044608116,0.0022361372,0.018391505,0.0048459396,-0.012263844,-0.005911069,0.025933381,-0.007086206,0.003577009,-0.003536388,-0.011910587,7.898684e-08,1.7746353e-07,1.193046e-07,-6.29333e-08,-2.1539546e-07,0.00049517205,0.028075136,0.00391738,-0.0055976766,0.007127371,-0.0140701905,-0.003849359,0.01807201,-0.0052722716,-0.012865775,-0.0013567457,0.004674844,0.0031542252,-0.0006733019,-0.0006734617,-0.0031549789,0.00467446,-0.0013561219,-0.012864118,0.0052734497,-0.018072944,0.003849551,0.014069781,0.0071289656,-0.0055979122,-0.0039141234,-0.028075276,-0.000495832,2.3463433e-06,-2.1808282e-07,-5.3452908e-08,-5.0999486e-08,-8.072574e-08,0.011910829,-0.003536196,-0.0035766026,-0.007086896,0.025933774,0.00590795,-0.012265437,-0.004843586,-0.018391289,-0.002236449,0.00044617502,-0.025420804,-0.009313036
HP:0010844,0.008566799,0.010480818,-0.00032837177,0.0017519454,0.011637213,0.0030825143,-0.007302117,-0.0017842818,0.014486439,-0.0050424268,0.0021773328,-0.0018854798,-0.0081916945,4.262602e-08,1.463343e-07,6.378734e-08,-1.6575575e-08,-1.361168e-07,-4.2284064e-05,0.017199365,0.00671131,-0.00056791824,0.0073371087,-0.011078108,0.0013575102,0.018149773,-0.0065701846,-0.011439878,-0.0040887804,-0.0038450125,-0.0016158996,0.0030045256,0.0030046275,0.0016161004,-0.003844532,-0.004088573,-0.011437522,0.006571542,-0.01815097,-0.0013572493,0.011078041,0.007338091,-0.0005679957,-0.006709289,-0.017199768,4.1793344e-05,1.5960054e-06,-1.5342286e-07,-2.6545864e-08,-2.833475e-08,-3.2744794e-08,0.008191904,-0.0018853712,-0.002177143,-0.0050428216,0.014486375,0.0017826128,-0.00730311,-0.003081145,-0.011637102,-0.0017521494,0.00032842846,-0.012710399,-0.0046565235
HP:0009830,0.023925724,0.029271338,-0.0005139243,0.001965804,0.0071915425,0.0012222938,-0.009750563,-0.010047991,0.041380458,0.005527933,-0.0067624487,-0.005372262,-0.011739416,1.1834415e-07,3.6460384e-07,8.100368e-08,-7.1776447e-09,2.0826545e-07,-0.0025966177,0.01249449,-0.012232889,0.00047430597,0.0025171803,0.0033919332,-0.007814188,-0.0072544063,0.009194189,0.0075993487,0.0023439461,0.0029291078,0.001359231,0.0025429637,0.002543211,-0.0013588701,0.0029290807,0.002344366,0.0075981547,-0.0091949785,0.007255039,0.0078145005,-0.003391953,0.002517982,0.0004744048,0.01223413,-0.012493072,0.002596758,3.8084092e-06,-4.7669093e-07,5.1168975e-08,-1.4406298e-07,-1.366555e-07,0.011739739,-0.0053692,0.0067636333,0.005527177,0.041381788,0.010042092,-0.009752142,-0.0012203072,-0.007191228,-0.0019659796,0.0005139302,-0.03549823,-0.013004896
HP:0002310,0.007167498,0.008768885,-7.868884e-05,0.0010462208,0.0066522537,0.0023119184,-0.006943182,-0.0052333875,0.017773038,-0.0007309038,0.00029443103,-0.0019169278,-0.006812512,4.221754e-09,1.4683478e-07,5.83774e-08,-3.8309004e-08,-2.6364425e-08,-0.0011067695,0.012738894,-0.00090303575,-0.00051605486,0.0054311496,-0.0053197364,-0.0050742566,0.0076932986,0.001278019,-0.004860965,-0.00036109544,0.0060360637,0.0027717398,-0.0025100894,-0.00251065,-0.0027726274,0.0060354243,-0.0003607239,-0.0048606577,-0.0012777385,-0.0076935827,0.005074478,0.005319521,0.0054318933,-0.00051618426,0.0009042797,-0.01273859,0.001106496,1.646542e-06,-1.9920347e-07,-1.4023558e-08,-2.8537265e-08,-2.669085e-08,0.006812612,-0.0019162562,-0.0002940799,-0.00073139544,0.0177736,0.0052310876,-0.0069440817,-0.0023105673,-0.0066521,-0.0010463428,7.8727346e-05,-0.010634282,-0.0038959263
HP:0000643,0.008127171,0.009942982,-0.00017796597,0.0012735305,0.0071819304,0.002325317,-0.0061379774,-0.003664393,0.0128528215,-0.002138145,0.0010216451,-0.0013218629,-0.005093869,-1.8368484e-08,7.7640316e-08,4.19447e-08,-5.0006484e-08,-8.0715175e-08,-0.0010735171,0.010147338,-0.0012610366,-3.736988e-05,0.0038071752,-0.0041464735,-0.004631694,0.0060671903,-0.00033731875,-0.004725094,0.0021962714,0.00411272,0.0028755693,-0.0041890107,-0.0041895043,-0.0028763341,0.0041119466,0.0021964277,-0.004724739,0.00033768752,-0.0060673975,0.0046318336,0.0041462467,0.003807773,-3.744131e-05,0.0012619944,-0.010146986,0.0010732979,1.1047533e-06,-1.3026354e-07,-1.7563435e-08,-2.0316131e-08,-7.599912e-09,0.0050939186,-0.0013215439,-0.0010214654,-0.002138564,0.012853165,0.003662855,-0.006138727,-0.0023241646,-0.007181819,-0.0012736436,0.00017799756,-0.012058143,-0.0044175605
HP:0009027,0.0127066,0.01554557,-0.00028516352,0.00014106184,0.011107724,0.004361616,-0.010878257,-0.007322708,0.028562093,-0.004313073,0.000745976,-0.0034752616,-0.01292047,2.0229763e-07,3.6654095e-07,1.5722097e-07,-1.1279795e-07,-2.9848703e-08,-0.0091458,0.014020213,-0.018769074,-0.020314507,0.008468471,0.008341905,-0.016562212,-0.025666669,0.0017980858,0.0041242586,0.0052308533,0.032065418,0.006814112,-0.00712555,-0.007126669,-0.006816725,0.03206344,0.0052318955,0.0041190437,-0.0018007412,0.025668563,0.01656105,-0.008343667,0.008469414,-0.020314619,0.018770551,-0.0140184555,0.009145837,2.7300825e-06,-2.5399729e-07,-4.5748614e-08,-1.05424675e-07,-1.8239851e-07,0.012920285,-0.0034741154,-0.0007453852,-0.0043135216,0.028562944,0.0073189116,-0.010879874,-0.004359396,-0.011107492,-0.00014127795,0.0002852357,-0.018852582,-0.00690672
HP:0004322,0.04342948,0.0531327,-0.001274649,0.0045381524,0.021823391,0.0018758476,0.0028511444,0.014165893,-0.02907479,-0.011891715,0.0073660784,-0.0006502485,0.0012286378,-4.5534243e-08,-5.7174294e-08,-3.8002348e-08,-1.4554262e-08,-4.825297e-07,0.0011983031,0.0005616886,0.0073835584,0.01297005,0.0073345974,-0.007129964,0.002248112,0.005240448,-0.0023857623,0.001483691,0.0074145193,-0.00890213,0.0005578072,-0.0010051096,-0.0010040412,-0.00055670284,-0.008901759,0.0074140504,0.0014852105,0.0023866466,-0.005240361,-0.0022470527,0.0071302927,0.0073346165,0.012969676,-0.0073834374,-0.00056157017,-0.0011984415,-1.8032249e-06,1.2196669e-07,2.0469871e-08,-1.8393e-08,1.1540829e-09,-0.001228185,-0.0006528981,-0.0073665255,-0.011890825,-0.02907709,-0.014161414,0.002851414,-0.0018766486,-0.021823537,-0.0045384066,0.0012747002,-0.06443561,-0.023606248
HP:0000750,0.030529499,0.037350565,-0.0009124428,0.004190918,0.027687898,0.00280042,-0.008258451,0.0007982515,0.008634124,-0.011096292,0.006776565,-0.0016467926,-0.0081682615,1.2566034e-08,-1.9603323e-08,4.671118e-08,-1.858266e-08,-4.1748635e-07,0.00526593,0.029656202,0.018223235,-0.005074874,0.0034303407,-0.021126224,0.01034007,0.026092567,-0.01344185,-0.015760913,-0.0016436324,-0.00055112754,-0.0082803685,-0.0021818618,-0.0021819132,0.008280539,-0.0005497532,-0.001643019,-0.015757492,0.01344401,-0.026093874,-0.01033964,0.021126159,0.003431868,-0.0050749127,-0.01821936,-0.02965798,-0.005266908,9.56279e-07,3.4061504e-08,-6.380627e-08,-1.381483e-08,2.688909e-08,0.00816851,-0.0016481761,-0.0067767366,-0.011096742,0.008633582,-0.0007988324,-0.008259319,-0.002798964,-0.02768778,-0.0041913292,0.0009125518,-0.04529611,-0.016594436
HP:0000717,0.01776446,0.02173349,-0.0006889077,0.0026597362,0.013899434,0.0016780691,-0.004664389,0.00010461919,0.0037155556,-0.008505341,0.003328386,-0.0017125105,-0.0053913845,2.7182725e-08,6.980674e-08,5.6666256e-08,-6.0377063e-09,-2.1434649e-07,0.00049265043,0.010206061,0.010255053,-0.004781548,0.0018293556,-0.010305628,0.005953282,0.017959366,-0.0081100585,-0.009652649,-0.0002418911,-0.00811448,-0.0043598968,-0.00052301335,-0.00052333745,0.0043603354,-0.008113833,-0.00024186696,-0.0096499715,0.008111619,-0.017960474,-0.0059532975,0.010305517,0.0018299946,-0.004781568,-0.010253642,-0.010207153,-0.00049301307,6.133211e-07,-4.523179e-08,-1.4513048e-08,-2.2496627e-10,1.8872523e-08,0.0053915908,-0.0017132377,-0.0033283755,-0.008505444,0.0037152518,-0.000104813436,-0.0046647554,-0.0016771986,-0.013899391,-0.002659948,0.00068896794,-0.026356842,-0.0096559515
HP:0011443,0.008127177,0.009942978,-0.00030040508,0.0016373433,0.0107883075,0.0028427928,-0.0066270707,-0.0014703134,0.012654778,-0.004719451,0.002180256,-0.0016696944,-0.007178195,3.5900772e-08,1.229037e-07,5.1789222e-08,-1.672973e-08,-1.278012e-07,0.00014729674,0.0152779585,0.0066484674,-0.0005102984,0.0062166015,-0.009880888,0.0012568103,0.015831478,-0.0058238143,-0.010110124,-0.0035222287,-0.0021436857,-0.0017290133,0.0024822603,0.0024823819,0.0017291537,-0.0021432252,-0.0035219954,-0.0101081235,0.005824975,-0.01583251,-0.0012565368,0.009880814,0.006217459,-0.0005103804,-0.0066466685,-0.015278403,-0.0001477343,1.3689215e-06,-1.4052769e-07,-2.3615469e-08,-1.8209176e-08,-3.0081875e-08,0.007178385,-0.0016696795,-0.0021800944,-0.004719795,0.012654694,0.0014688766,-0.0066279643,-0.0028415541,-0.010788207,-0.0016375341,0.00030045665,-0.0120581435,-0.004417563
HP:0011448,0.008127168,0.0099429805,-0.00012417277,5.9828162e-05,0.00199556,-0.0043237885,-0.0005484772,-0.005818655,0.019710613,0.0014594814,-0.002327356,-0.0019251191,-0.005626605,3.279929e-08,1.3426828e-07,7.5576196e-08,-2.7089724e-08,-2.3645793e-08,0.0011271159,0.014291545,-0.0036236437,0.0011552847,0.0025917892,-0.0052829427,-0.0021708598,0.0065070265,0.002608437,-0.0013202683,-0.0007587609,0.0046616327,0.002350416,-0.0010206869,-0.0010211819,-0.0023507494,0.0046615317,-0.0007582813,-0.0013199074,-0.0026082636,-0.0065071764,0.0021713257,0.0052829445,0.002592576,0.0011552371,0.003625151,-0.014290921,-0.0011273959,1.7997136e-06,-2.2743139e-07,5.895144e-09,-3.5825682e-08,-4.382256e-08,0.0056267655,-0.0019240375,0.002327718,0.0014590754,0.019711548,0.005815451,-0.00054841675,0.004324131,-0.0019954552,-5.9868013e-05,0.00012418875,-0.012058142,-0.0044175554
HP:0003202,0.022008471,0.026925717,-0.00047434866,0.002056526,0.013796259,0.002861742,-0.01077409,-0.0037321653,0.031259555,-0.00066400133,-0.0016692168,-0.0044747414,-0.014012151,2.1519179e-07,3.3974314e-07,8.3652516e-08,-9.045969e-08,1.2691358e-07,-0.009233646,0.013202394,-0.017203523,-0.008777397,0.012381437,0.00811598,-0.009330834,-0.028873386,0.001286089,0.008134533,0.008463058,0.02671019,0.0051455637,-0.0077641727,-0.0077648787,-0.0051471847,0.026708728,0.008463638,0.008129626,-0.0012887176,0.02887545,0.0093302615,-0.008117267,0.012382159,-0.008777043,0.017204622,-0.013200311,0.009233749,3.3001368e-06,-4.0282114e-07,-8.921605e-09,-1.0307633e-07,-1.4140946e-07,0.014012111,-0.004472839,0.001670058,-0.0006643754,0.03125982,0.0037280028,-0.010775788,-0.0028596753,-0.013796016,-0.0020567998,0.00047443312,-0.03265362,-0.011962775
HP:0045075,0.011493552,0.014061497,-0.0003335178,0.0014027925,0.008479612,-0.0011411449,0.0016122987,0.0023714518,-0.010672789,-0.0035244203,0.0028237829,0.0011821903,4.1730276e-05,1.2633684e-07,7.2831035e-08,3.948664e-08,-3.08987e-08,-2.8640352e-07,-0.00023299507,0.0009155318,0.010003322,-0.04569527,-0.022463543,0.011574005,-0.034454335,0.014023438,0.00850776,-0.0065141227,-0.011663496,0.007614426,-0.001732036,0.011883561,0.011883656,0.0017318141,0.0076144338,-0.011662055,-0.0065147965,-0.008507468,-0.0140240025,0.034451913,-0.011576781,-0.022463389,-0.045696713,-0.01000262,-0.000918879,0.00023276353,-5.598856e-07,2.1341992e-07,-1.0375272e-08,-1.9398641e-08,-1.9412366e-07,-4.233336e-05,0.0011812383,-0.0028241763,-0.0035239547,-0.010673003,-0.0023698027,0.0016127825,0.0011407043,-0.008479663,-0.0014028633,0.00033358065,-0.017052785,-0.006247388
HP:0008003,0.00383118,0.0046871635,-0.0001336874,0.00054442417,0.00390868,0.00091533666,-0.0036595275,-0.0024425657,0.010969347,-0.0006877843,-0.00050865614,-0.0012716826,-0.0046979226,2.2806377e-08,1.05115525e-07,4.0841595e-08,-3.253823e-08,-5.8230634e-09,-0.001282056,0.0068693003,-0.0014286235,-0.002281297,0.0029194222,-0.0025763847,-0.0027490966,0.0044782977,0.00022085242,-0.0025909892,-8.528824e-05,0.00077352935,0.0032881896,-0.0018213869,-0.0018215367,-0.0032884644,0.0007731157,-8.522673e-05,-0.0025906556,-0.00022060011,-0.004478489,0.0027490985,0.0025761535,0.0029198357,-0.002281348,0.0014292974,-0.006869073,0.0012819843,1.1757649e-06,-1.4687582e-07,-1.1755023e-08,-2.6136759e-08,-2.9396153e-08,0.004697988,-0.0012711152,0.0005088952,-0.00068802165,0.010969574,0.0024411085,-0.0036600244,-0.0009146118,-0.003908605,-0.0005445061,0.00013371688,-0.0056842584,-0.0020824685
HP:0000973,0.008984928,0.010992378,-0.00025861524,0.00082328264,-0.0024239449,0.003063803,-0.003721925,0.0017039236,-0.00085590023,-0.0033792313,0.0016051899,0.00026615252,0.0046694158,-7.925321e-08,-1.6745456e-07,-2.4009879e-08,2.9884767e-08,2.0897647e-07,-0.0007631725,-0.000593331,0.00018367215,-0.0040373034,-0.004724179,0.00045129287,0.006168613,-0.0039120135,0.0019862147,0.0026954596,0.0016687375,4.043844e-05,-0.002007122,0.0034164018,0.0034164006,0.0020068984,4.05047e-05,0.0016687502,0.0026951232,-0.0019864547,0.0039120987,-0.0061688875,-0.00045118463,-0.0047242614,-0.0040369728,-0.00018365309,0.0005929335,0.0007632188,-1.3201661e-06,1.267637e-07,-8.92258e-09,5.8249633e-08,5.981198e-08,-0.0046694935,0.00026546587,-0.0016052168,-0.0033792846,-0.0008563833,-0.0017034725,-0.0037223774,-0.0030632738,0.0024239395,-0.00082327134,0.00025859143,-0.013330785,-0.0048837834
HP:0008070,0.017969858,0.021984756,-0.0005466752,0.0017205458,0.007853846,-0.0036463542,0.0036829342,0.0035895724,-0.0103168115,-0.006359504,0.003210299,0.00042245368,0.0009366028,9.454682e-09,-8.1424794e-08,-1.0806083e-08,6.152685e-09,-2.3748252e-07,0.001862526,0.0032440657,0.012557971,-0.018180776,-0.00910041,-0.00082238705,-0.004036929,0.0087390905,-0.0014617722,-0.0033439258,-0.0016661248,0.0036475623,-0.0051137474,0.0055595017,0.005559633,0.0051138843,0.0036484422,-0.0016655463,-0.0033433663,0.0014623929,-0.008739292,0.004036226,0.0008214269,-0.009100367,-0.018181115,-0.012557233,-0.0032462394,-0.0018628169,-8.7036926e-07,2.1482838e-07,-2.2899282e-08,-2.5637046e-08,-3.3776967e-08,-0.0009368313,0.00042114902,-0.0032106596,-0.0063591274,-0.010317245,-0.0035882324,0.0036837962,0.0036456785,-0.007853929,-0.0017206308,0.000546691,-0.026661577,-0.009767594
HP:0000278,0.019346537,0.023669023,-0.00072220154,0.002567945,0.013543579,0.0054094344,-0.0044655255,0.006763866,-0.009034786,-0.013487332,0.0069978572,-0.00029730648,0.001304405,-3.6993324e-08,1.6891488e-09,-6.738365e-08,4.798249e-08,-1.6040616e-07,-0.0009619165,-0.0021478976,0.009416621,-0.0055492106,0.00037191928,0.0024382186,0.017196266,-0.019267969,-0.009926266,0.0012979187,-0.0042433483,0.007283979,-0.0051814876,0.01906574,0.01906495,0.005181323,0.007284744,-0.0042434405,0.0012959535,0.009924685,0.019268282,-0.017196998,-0.002438092,0.00037168432,-0.005548393,-0.009416548,0.0021466604,0.00096179335,-1.5394351e-06,1.8916641e-07,-4.7911515e-09,9.51816e-08,1.270366e-07,-0.0013044325,-0.00029954893,-0.0069980933,-0.013487118,-0.009036163,-0.0067620464,-0.0044662175,-0.00540879,-0.013543633,-0.0025681136,0.00072224357,-0.028704124,-0.010515887
HP:0000252,0.03897655,0.047684856,-0.00087999925,0.0040130466,0.026529703,0.0018076412,-0.005786858,0.0058035366,-0.004065516,-0.008283064,0.006091377,-0.0030105328,-0.0065186634,-7.1072437e-10,8.491403e-08,-6.776661e-09,-2.60268e-08,-3.1656498e-07,0.006271301,0.016518082,0.03947521,0.019976612,0.010880285,-0.017678594,0.0021619315,0.01948723,-0.0074599567,-0.011698073,-0.004465495,-0.0014070113,-0.0070598316,0.012685451,0.012686494,0.0070609134,-0.0014053213,-0.004465004,-0.011695402,0.0074615125,-0.01948846,-0.0021603603,0.017679244,0.010880757,0.019975923,-0.039473217,-0.016521407,-0.0062722987,6.1846373e-07,-3.5549178e-08,-2.2607573e-08,-1.4720415e-08,2.117018e-08,0.0065192776,-0.0030121582,-0.006091315,-0.0082830945,-0.0040668505,-0.005802326,-0.0057873544,-0.0018068509,-0.026529657,-0.004013412,0.0008800889,-0.05782885,-0.02118585
HP:0000219,0.019155927,0.023435822,-0.000693772,0.0024858583,0.019997353,0.003014435,-0.0028450997,0.0039929524,-0.009130507,-0.01371074,0.008391674,-7.260503e-05,-0.0009974127,-5.7866765e-09,-1.2816753e-07,4.9004294e-09,1.6385385e-08,-4.2063851e-07,0.0038737592,0.012799974,0.019256618,-0.004395358,0.0040003275,-0.011791643,0.013550743,0.011859554,-0.013482487,-0.012020865,0.0005468484,-0.0027189266,-0.0049515273,0.0038227907,0.0038229255,0.0049522123,-0.0027180666,0.0005469737,-0.012018827,0.013483816,-0.011860588,-0.0135508375,0.011791552,0.0040008416,-0.0043950933,-0.019254679,-0.012801894,-0.0038744167,-1.1079578e-06,1.8052941e-07,-3.297226e-08,4.4568576e-08,8.020402e-08,0.0009975596,-7.5163065e-05,-0.008392161,-0.013710715,-0.009131399,-0.0039911494,-0.0028453146,-0.0030139524,-0.019997401,-0.002486105,0.00069385854,-0.028421303,-0.010412279
HP:0031358,0.0054181204,0.0066286516,-0.00017750356,0.00065481896,0.0030916836,0.0006592949,-0.003045722,-0.0008746288,0.0071785813,8.615386e-05,-0.0007474202,-0.0011382771,-0.0027568028,2.176449e-08,4.5040764e-08,2.386121e-08,-1.2419657e-08,8.3509924e-08,-0.0014027287,0.0043714587,0.0007507519,0.0009929603,0.002530375,-0.0021225412,-0.0016858793,0.0037068438,-0.0014442147,-0.0030798283,0.0011696907,0.0018842095,0.0012158031,-0.0029735428,-0.0029736992,-0.00121609,0.0018839574,0.0011698223,-0.003079534,0.0014444754,-0.0037070028,0.0016859914,0.0021224695,0.002530627,0.0009928904,-0.00075031223,-0.004371438,0.0014026429,7.279087e-07,-7.1091065e-08,-1.15537375e-08,-1.0645987e-08,-3.8725826e-08,0.002756858,-0.0011378356,0.0007476265,8.5985856e-05,0.0071785985,0.0008737251,-0.0030461145,-0.0006587648,-0.003091628,-0.00065488205,0.00017751727,-0.00803876,-0.0029450427
HP:0001511,0.031242367,0.03822267,-0.0008907914,0.0031029172,0.015314921,-0.0006459337,-0.000516507,0.0075756293,-0.010395563,-0.008883078,0.0042043533,-0.0014523022,-0.0012102317,2.7446731e-08,1.18009815e-08,-4.792399e-08,-6.145223e-10,-1.527088e-07,0.0008272378,0.00028747212,0.025409043,0.009241498,0.0047826706,-0.0021120831,-0.0028683397,-0.0057770587,-0.001167151,0.002918878,0.0009353287,-0.0053187553,-0.0021258213,-0.0017188981,-0.0017179573,0.0021270278,-0.005318312,0.00093499426,0.002918529,0.0011672286,0.0057771956,0.0028686838,0.0021120158,0.004782376,0.009241023,-0.025408985,-0.00028988445,-0.0008276455,-5.5261063e-07,8.1003094e-08,-8.935439e-09,-3.160968e-08,1.6390203e-08,0.0012104511,-0.0014539019,-0.0042044306,-0.008882714,-0.010396996,-0.0075739496,-0.0005163228,0.00064585573,-0.015314963,-0.0031030974,0.00089082966,-0.04635376,-0.016981898
HP:0012377,0.009767627,0.0119499685,-0.0003934335,0.0013618926,0.0035223374,0.006680209,-0.008330927,-0.0070099477,0.031117717,0.006778539,-0.008021612,-0.004086134,-0.0073399087,1.0960459e-07,3.6335422e-07,5.3514118e-09,5.532752e-08,2.3118237e-07,-0.002723935,-0.0047068615,-0.013819153,0.010443575,-2.1761605e-06,0.0075481376,0.0063404883,0.000238553,0.009409271,0.011927765,-0.004092055,-0.014763487,0.0021704154,0.012928049,0.012929799,-0.002167489,-0.014761859,-0.0040923124,0.011928829,-0.009409527,-0.0002385322,-0.0063396962,-0.007547116,-2.1540968e-06,0.010444176,0.013818567,0.0047085285,0.0027245453,2.8279253e-06,-4.7039464e-07,8.110756e-08,-1.1391144e-07,-6.3011385e-08,0.007340345,-0.0040831785,0.008022675,0.0067780083,0.031118656,0.007005698,-0.008332955,-0.0066786297,-0.0035221064,-0.0013620086,0.00039342995,-0.014492089,-0.005309224
HP:0002936,0.0132716065,0.016236814,-0.00023437757,0.0011491757,0.010441495,0.002467353,-0.00969327,-0.006240852,0.031947173,-0.00096033746,-0.0009502268,-0.003346708,-0.014007892,1.6029838e-07,3.6097524e-07,1.6834525e-07,-9.771333e-08,3.5445678e-09,-0.0067004724,0.018506128,-0.015340877,-0.015548354,0.008151123,0.0017399888,-0.014842431,-0.010454321,0.0019836836,-9.3389615e-05,0.0035794473,0.024599101,0.0069982246,-0.0070826476,-0.00708327,-0.007000453,0.024597581,0.00358042,-9.6376265e-05,-0.0019850873,0.010455434,0.014841848,-0.0017414286,0.008152289,-0.015548573,0.015342823,-0.018504566,0.0067003765,3.3609833e-06,-3.0541582e-07,-4.6741444e-08,-1.132487e-07,-1.8321171e-07,0.014007822,-0.0033449987,0.0009508652,-0.0009609041,0.031947903,0.0062364517,-0.0096948305,-0.0024654078,-0.010441253,-0.0011494013,0.00023443066,-0.01969087,-0.007213829
HP:0000348,0.02233947,0.027330633,-0.00080920383,0.0029694177,0.0173125,0.0028168298,-0.0015653565,0.0063644256,-0.010871054,-0.015021565,0.008351731,-0.00032872954,-0.0005970252,-5.2005236e-09,-1.2421063e-07,4.951346e-10,1.04897495e-08,-4.3557307e-07,0.0031296688,0.008361686,0.017973198,-0.00380944,-0.0003109506,-0.008499021,0.009596659,0.008769344,-0.008483286,-0.006270852,0.0016919913,-0.0026572524,-0.0021698594,0.00083745434,0.0008377669,0.0021704491,-0.0026567394,0.001692012,-0.0062693916,0.008484315,-0.008769857,-0.009596672,0.008498925,-0.00031066546,-0.0038093731,-0.01797176,-0.008363644,-0.0031301314,-1.2682281e-06,1.8366293e-07,-1.3226716e-08,1.9917255e-08,6.890583e-08,0.00059716316,-0.00033138486,-0.008352161,-0.015021356,-0.010872299,-0.0063624918,-0.0015655521,-0.0028166296,-0.01731256,-0.002969639,0.000809255,-0.033144664,-0.0121426955
HP:0032794,0.011808504,0.014446814,-0.00027218368,0.0021748682,0.014676775,0.0036674528,-0.00804871,-0.0014622444,0.013527436,-0.00724216,0.0048266044,-0.0013188943,-0.0073367734,3.51101e-08,8.4452694e-08,4.3684942e-08,-7.416565e-09,-2.0721421e-07,0.0019747105,0.021307468,0.011182779,0.00091548165,0.0074979383,-0.013911909,0.0038899034,0.019323999,-0.008982569,-0.013790712,-0.0044246614,-0.0033800665,-0.0046573356,0.0048624794,0.0048627583,0.004657753,-0.0033791955,-0.004424386,-0.013788037,0.0089841075,-0.019325467,-0.0038894895,0.013911975,0.0074990913,0.0009154434,-0.0111802025,-0.02130829,-0.0019753745,1.1537234e-06,-1.1589132e-07,-3.481606e-08,-7.275541e-09,-2.2537591e-08,0.007336998,-0.0013195039,-0.0048266156,-0.007242634,0.013527278,0.0014608087,-0.008049774,-0.003665999,-0.014676662,-0.0021751055,0.00027225082,-0.017520072,-0.0064185625
HP:0001765,0.010492135,0.012836334,-0.00026671868,0.0009921715,0.009749167,0.0029693116,-0.0061282148,-0.0013688914,0.013432241,-0.0046352246,0.002250972,-0.001410338,-0.0056588356,6.406391e-08,1.1042087e-07,7.818449e-08,-4.180818e-08,-7.044289e-08,-0.002799509,0.009887602,-0.006070402,-0.00926701,0.0035117194,0.0010889188,-0.0033187475,-0.010658314,-0.0007305268,-0.00033655582,0.0033926733,0.017325273,0.0013026916,-0.004344783,-0.004345418,-0.0013041819,0.017324457,0.003393276,-0.00033876696,0.00072946533,0.010659061,0.0033183058,-0.0010896057,0.0035122896,-0.00926696,0.006071565,-0.00988702,0.0027994183,9.644388e-07,-6.7558844e-08,-3.876085e-08,-3.8314614e-08,-5.5840403e-08,0.005658795,-0.0014103298,-0.002250811,-0.004635474,0.013432263,0.0013672182,-0.0061292103,-0.0029681532,-0.009749057,-0.0009923368,0.0002667619,-0.015566995,-0.005703041
HP:0000448,0.010836226,0.013257304,-0.00043246802,0.0014634058,0.008530003,-8.5300766e-05,-2.5110594e-05,0.0004459517,-0.005256059,-0.006346921,0.003241159,-0.00071231177,-0.00029844017,-6.489773e-09,-6.0932116e-08,-5.0521e-09,1.7256996e-09,-2.0860465e-07,0.0014708856,0.004701389,0.007270515,-0.0033028277,0.00011403949,-0.004170319,0.004518321,0.0020867877,-0.0034918168,-0.0015513675,0.0015542276,0.0031835798,-0.0011150335,0.0018320972,0.0018320044,0.0011149129,0.0031838322,0.001554385,-0.0015511467,0.0034919712,-0.0020867498,-0.004518351,0.004170196,0.00011421658,-0.0033027995,-0.0072698127,-0.004702168,-0.001471116,-5.206335e-07,7.04177e-08,-1.32628974e-08,1.3843401e-08,3.0984545e-08,0.00029852908,-0.0007134298,-0.0032412712,-0.0063468055,-0.005256187,-0.00044510016,-2.4859004e-05,8.5376574e-05,-0.00853002,-0.0014635129,0.00043248662,-0.016077533,-0.005890077
HP:0001761,0.02098427,0.025672656,-0.0005690586,0.0015772283,0.01722533,0.003810919,-0.010015102,-0.004352264,0.029876845,-0.0042025903,0.00058882206,-0.003915706,-0.013468791,1.2183199e-07,2.9223025e-07,1.5234993e-07,-8.876661e-08,-1.1760522e-07,-0.004549462,0.021152617,-0.010701846,-0.0103182625,0.009493655,-0.0026805212,-0.0068102013,-0.004791073,-0.0015278917,-0.0032674102,0.0029085674,0.02689941,0.00643579,-0.008108282,-0.00810914,-0.0064382753,0.026898079,0.0029096473,-0.0032696475,0.0015268388,0.0047920477,0.0068099764,0.002679538,0.00949482,-0.01031826,0.010704113,-0.021151308,0.0045492337,2.9858668e-06,-2.8663698e-07,-5.5147893e-08,-8.979729e-08,-1.3050449e-07,0.013468883,-0.0039146305,-0.0005882157,-0.004203158,0.029877216,0.0043482897,-0.010016881,-0.003808963,-0.0172251,-0.0015775248,0.000569147,-0.031133985,-0.011406081
HP:0000508,0.032621358,0.039909776,-0.0010091513,0.004558459,0.020822268,0.0046107005,-0.009734007,0.0029747672,0.0053947284,-0.012441592,0.005359038,-0.0026072059,-0.004451487,4.5315396e-08,7.841292e-08,-6.5768857e-09,-4.3696996e-08,-2.3425103e-07,0.0032626002,0.0044842022,0.026161479,0.016363602,0.010314511,-0.0040256134,-0.005327544,-0.00033631243,0.004116526,0.001324635,0.004444065,0.0077853585,0.0032294109,0.006214175,0.006214613,-0.0032290495,0.007785211,0.0044445503,0.0013240355,-0.0041167745,0.0003365879,0.0053284816,0.0040258057,0.010314416,0.016362969,-0.026161171,-0.0044862092,-0.0032629555,2.5990198e-07,-1.3060821e-07,1.773796e-08,-3.0752794e-08,-2.27126e-08,0.0044518122,-0.0026087244,-0.0053588273,-0.012441758,0.0053936252,-0.0029749298,-0.009735016,-0.004609052,-0.020822167,-0.0045587784,0.0010092146,-0.048399758,-0.017731456
HP:0000504,0.01837371,0.022478858,-0.0006682072,0.0021161158,0.008608645,0.0006509498,-0.004385469,-0.0004283078,0.0041347384,-0.004132426,-0.00045844825,-0.0010619321,-0.0034854438,3.680645e-08,1.6084871e-07,4.2684224e-08,-8.193335e-08,-1.7975585e-08,-0.0027582091,-0.0036812543,0.013071984,-0.013119023,-0.0042777956,0.0011204964,-0.010131778,0.015566933,0.0045234365,-0.0030069097,0.0011823175,-0.010226107,0.0071630594,-0.00021636806,-0.00021698826,-0.0071626473,-0.010226958,0.0011823759,-0.0030053218,-0.0045222947,-0.01556767,0.010131023,-0.001121331,-0.0042779716,-0.013119679,-0.013072369,0.003679079,0.0027582117,7.0384715e-07,-1.0700579e-07,3.526094e-08,-1.5276054e-08,-3.5647304e-08,0.003485437,-0.0010618563,0.00045864529,-0.004132413,0.00413447,0.00042798443,-0.0043856753,-0.0006502008,-0.008608617,-0.002116242,0.0006682686,-0.027260771,-0.009987109
ABAT,-0.008566786,-0.010480812,-0.00032106554,-0.0005665859,-0.003902654,-0.0017572269,0.0038208205,-6.98166e-05,-0.0071511846,-1.3730256e-05,-0.0026265543,0.001191117,0.00223866,-1.874354e-09,-5.346143e-08,4.3898813e-09,6.657822e-09,-4.7572552e-08,-0.0007552043,-0.00679279,-0.0012220045,-0.0009044911,-0.00051721063,0.0031448258,-0.003479356,0.00022371272,0.0017206263,0.00233041,0.0011035904,-0.00056579267,0.003136635,-0.004899675,0.004899781,0.0031367168,0.0005662829,-0.001103416,-0.0023301549,0.001720671,0.0002231714,-0.0034791452,0.0031449888,0.0005176208,0.000904701,-0.0012212774,-0.006792871,-0.0007554133,3.329318e-07,-7.137951e-08,-1.4889145e-08,9.591913e-09,-5.292925e-09,0.0022386857,-0.0011912329,-0.0026263418,1.3564025e-05,0.0071510375,-7.063498e-05,-0.0038214622,-0.0017566541,-0.0039025997,-0.0005666393,-0.0003210402,-0.0127104,-0.0046565086
HP:0010851,0.008127162,0.009942978,-5.982304e-05,0.0013046181,0.009267531,0.0021226406,-0.0052148886,-0.0004704157,0.009237817,-0.0035259495,0.0032423902,-0.0013231831,-0.005167351,4.43998e-08,7.6646536e-08,-8.246253e-09,-5.8531016e-09,-8.401649e-08,0.0009613341,0.013733411,0.0066857096,0.00014979574,0.006763538,-0.0084513,0.0028884024,0.009846818,-0.0050328393,-0.009164312,-0.0033239722,-0.0019102052,-0.004616326,0.004760042,0.0047603915,0.0046166508,-0.0019095147,-0.003323756,-0.009162853,0.0050336807,-0.0098479325,-0.0028881843,0.008451276,0.0067643025,0.00014984245,-0.006684092,-0.013733851,-0.0009618051,8.615913e-07,-1.0913717e-07,-3.201518e-08,-1.6741424e-08,-1.8641359e-08,0.0051675015,-0.0013234952,-0.0032422722,-0.0035262473,0.009237654,0.0004693872,-0.0052156164,-0.0021217365,-0.009267451,-0.0013047648,5.9872746e-05,-0.012058137,-0.004417554
HP:0002415,0.012706611,0.0155455675,-5.0836243e-05,-0.0003875345,0.006876357,0.0004973933,-0.0072538415,-0.005666636,0.029339889,0.0010420782,-0.000794148,-0.003579376,-0.0060815327,6.7134486e-08,1.5551902e-07,1.6174207e-08,6.323291e-09,1.0248121e-07,0.0028068256,0.01576864,-0.00055367226,0.0117322905,0.00035757176,-0.005804362,0.0011305079,0.005259443,0.003292206,0.0012062466,-0.0029981558,-0.0027422302,-0.0029012302,0.011097125,0.011098538,0.0029027052,-0.0027408474,-0.0029977714,0.0012073372,-0.0032919447,-0.0052599325,-0.0011292428,0.005805187,0.00035845573,0.011732377,0.00055545225,-0.015768174,-0.0028070267,1.8748206e-06,-3.0561569e-07,1.530624e-08,-7.617186e-08,-5.9166624e-08,0.0060818894,-0.003578332,0.0007948707,0.00104149,0.029340548,0.0056624687,-0.0072549623,-0.00049600814,-0.006876159,0.00038738252,5.0889532e-05,-0.018852577,-0.006906714
HP:0007291,0.0038311887,0.0046871672,-5.59818e-06,0.00046719564,0.0024285242,0.0010830269,-0.0015653172,0.00022961991,0.0025422596,-0.0009745929,0.0010004515,-0.0005637444,-0.0011094691,-5.4110543e-09,3.0661397e-08,1.4589242e-09,1.3457498e-09,1.4142288e-09,-0.00019352569,0.0014617294,0.00074928056,-0.0009750556,-4.294225e-05,-0.0015620639,0.0018344221,0.000801915,-0.0006820722,-0.00076101726,0.00037312074,-0.0006761033,-0.00073684676,0.0013266867,0.0013265966,0.0007368557,-0.0006759877,0.0003731047,-0.00076075934,0.0006821784,-0.000802126,-0.0018344078,0.0015620574,-4.2815667e-05,-0.0009750013,-0.0007491515,-0.001461821,0.00019347105,1.3075639e-07,-2.183472e-08,-1.5130954e-08,-5.126242e-09,-5.4463785e-09,0.0011094746,-0.0005638258,-0.0010003917,-0.00097465655,0.002542173,-0.00022990584,-0.0015656038,-0.0010827758,-0.0024285053,-0.0004672351,5.6116996e-06,-0.0056842654,-0.0020824512
HP:0001252,0.044760983,0.054761644,-0.00081313774,0.0050595626,0.027537696,0.0063474253,-0.011574336,0.001471851,0.02027904,-0.013282555,0.009105988,-0.004487578,-0.009868636,9.912462e-08,1.0578732e-07,4.520876e-08,-5.465769e-08,-3.6532288e-07,0.0021598195,0.024248458,0.003716436,0.008949302,0.01024053,-0.015211538,0.0017593433,0.0109078465,-0.0063331877,-0.008659822,0.0012317483,0.0039143865,-0.007950197,0.0026381395,0.0026389665,0.007950529,0.0039156745,0.0012324998,-0.008658319,0.0063340217,-0.010908559,-0.0017581279,0.015211746,0.01024195,0.008949092,-0.0037135861,-0.024248004,-0.0021602716,1.0999881e-06,-1.9211082e-07,-6.208162e-08,-5.322491e-08,-2.6614117e-08,0.009869088,-0.0044889143,-0.009105608,-0.013282864,0.020278282,-0.0014740812,-0.0115763005,-0.0063453866,-0.027537497,-0.005059974,0.00081323454,-0.06641106,-0.024330013
HP:0003819,0.013545282,0.016571635,-9.1362745e-07,0.000616597,0.0026102439,-0.0016757557,-0.00031546113,-0.0013692714,0.01106695,-0.004050191,0.0031840266,-0.0015429425,-0.0025045148,2.0534088e-08,1.5332542e-08,-1.5475898e-08,-1.1778835e-08,1.7139126e-08,-0.00068157306,0.01039532,0.0010040605,-0.00026650625,0.0019551248,-0.002870078,-0.0036339008,0.0016465241,-0.002386737,-0.0037480304,0.0028581957,0.0007464761,-0.004109594,-0.00056884374,-0.00056816934,0.0041096066,0.00074678875,0.0028583906,-0.00374761,0.0023870785,-0.0016469484,0.0036341401,0.0028699047,0.0019557432,-0.00026652336,-0.0010029031,-0.010395285,0.00068136246,2.60889e-07,-6.802853e-08,-1.9982314e-08,-4.039546e-08,-7.012916e-08,0.002504584,-0.0015433708,-0.0031838682,-0.0040502893,0.011067106,0.001367486,-0.0003155808,0.0016759675,-0.002610196,-0.00061662693,9.2693887e-07,-0.020096906,-0.007362587
HP:0000098,0.014334971,0.017537763,-0.00039722584,0.001988534,0.0051166434,0.005793824,-0.003288196,0.008875735,-0.017769188,0.005244929,-0.001811703,0.0005506316,0.0040432024,-1.0206723e-07,1.7768255e-07,-2.687489e-08,9.71299e-08,2.9099692e-07,-0.0041245692,-0.016943226,-0.0077656866,-0.0072209984,-0.0044322982,0.012505999,0.022069642,-0.028345294,-0.007976505,0.0042452784,-0.0052350643,-0.0010960554,-0.0018453932,0.022729114,0.02272626,0.0018450357,-0.0010957407,-0.005235754,0.0042432225,0.00797433,0.02834464,-0.022070862,-0.012505406,-0.004433114,-0.0072194743,0.007763711,0.016943354,0.0041245474,-1.0205272e-06,1.066796e-07,-7.77262e-08,1.3579488e-07,1.7163899e-07,-0.0040435195,0.0005509792,0.0018118302,0.0052451803,-0.017770603,-0.008872508,-0.0032889403,-0.0057937917,-0.005116696,-0.0019885628,0.0003972609,-0.021268561,-0.007791848
HP:0001347,0.030409073,0.03720322,-0.00044732168,0.0026269257,0.016481632,0.0019700006,-0.015000223,-0.013601456,0.04573598,0.006906187,-0.0026984985,-0.001025379,0.0063380655,-2.037053e-07,-4.479635e-07,-4.3604736e-08,3.7869114e-08,3.0852068e-08,0.023354597,0.028510543,0.0067221685,0.02083472,-0.02384137,-0.015921777,0.0047916756,0.026190028,0.018229261,0.005686206,-0.002409119,0.009570217,0.00073638454,-0.013359656,-0.013359625,-0.0007379159,0.009570724,-0.0024077282,0.0056882873,-0.018228201,-0.026190156,-0.0047891587,0.015923912,-0.023840327,0.020834627,-0.006718902,-0.028511314,-0.023355054,2.6381915e-07,-3.2858406e-08,-2.565618e-09,1.16233885e-08,1.02250226e-07,-0.006337827,-0.0010244669,0.002699058,0.0069044563,0.045737676,0.013595426,-0.015001977,-0.0019673773,-0.016481271,-0.0026272102,0.00044738344,-0.04511745,-0.016528951
HP:0003623,0.023461098,0.028702898,0.00015787408,0.0009912737,-0.01470305,0.009918346,-0.015161958,0.0027011987,0.013164571,0.009332018,-0.003486244,-0.0040945434,-0.013685265,1.1715885e-07,3.4893372e-07,-6.7869465e-08,-8.672585e-08,3.9009376e-07,-0.002250548,0.014977066,-0.003685166,-0.0011141801,0.009095807,-0.003356339,-0.010285376,-0.0012870672,-0.0022456083,-0.005511302,0.004601326,-0.00041755833,-0.0010445587,-0.0042071883,-0.004205991,0.0010447752,-0.00041766517,0.004601421,-0.005511266,0.0022460497,0.0012862687,0.010285634,0.0033556612,0.009096765,-0.001114415,0.0036865904,-0.014976372,0.0022501664,3.7049697e-06,-3.7838797e-07,-8.1794845e-08,-1.5214249e-07,-2.3687899e-07,0.013685487,-0.0040919175,0.0034872787,0.009331427,0.013163688,-0.002701993,-0.01516433,-0.009916246,0.014703248,-0.0009911748,-0.00015796376,-0.03480886,-0.01275236
ABCA1,-0.014076672,-0.017221736,-0.00015812926,0.0006533582,0.01049532,0.004609018,-0.0011004396,0.0031618131,-0.009777785,0.0008170327,-0.00013855129,-0.00085470884,-0.0014521871,6.977743e-08,9.104623e-08,9.5457715e-08,-5.078965e-08,-2.7376663e-07,0.003940557,0.0036314765,0.0039296,0.014168111,0.0067964164,-0.013076167,0.01385374,0.024918906,-0.012612103,-0.010773652,-0.0059863934,-0.0042622094,0.0067352764,-0.0086440295,0.008644359,0.0067340992,0.004261627,0.0059861904,0.010770052,-0.01261374,0.024919797,0.013852429,-0.013076991,-0.0067968555,-0.014168112,0.0039290297,0.0036312235,0.0039407746,-2.6021488e-07,9.560852e-08,-3.2606163e-08,-2.4348083e-08,-6.4990906e-09,-0.0014527828,0.0008548194,-0.00013851491,-0.00081700087,0.009778295,0.0031600045,0.0011009839,0.0046090656,0.010495311,0.00065344136,-0.00015821279,-0.020885339,-0.00765141
HP:0001114,0.007167484,0.008768888,0.0001787995,-4.6844594e-05,-0.0046081445,-0.0010116273,-0.0012673038,-0.0022186292,0.00819688,0.0030440842,-0.001172112,8.759519e-05,-0.0014694306,-3.035458e-08,4.661903e-09,-7.03442e-08,-3.770172e-09,2.0415543e-07,-0.002188996,-0.0009722524,-0.004239186,-0.0022955234,0.00034832596,0.005157814,-0.009115387,-0.0139982635,0.004720686,0.004853882,0.0065060784,-0.003546845,-0.004795298,0.00020824946,0.00020891071,0.004794679,-0.0035472738,0.0065055587,0.00485239,-0.0047212495,0.013998566,0.009114904,-0.0051582074,0.0003481592,-0.0022955297,0.004238825,0.00097270345,0.0021891303,6.0966295e-07,-2.5840006e-08,-1.4592125e-08,-4.7130403e-08,-5.3891327e-09,0.0014691954,8.8303335e-05,0.0011722805,0.003043955,0.008197187,0.0022174066,-0.001267405,0.0010119019,0.004608189,4.6874247e-05,-0.00017882616,-0.010634294,-0.0038959105
HP:0007328,0.01013636,0.012401071,-0.0003696503,0.0014012232,0.009433402,0.0023530563,-0.0055392506,-0.0010872297,0.011694822,-0.0033081078,0.000979224,-0.0014846773,-0.0058674584,6.510645e-08,1.2357494e-07,7.297942e-08,-3.8212118e-08,-5.458312e-08,-0.0028111946,0.0103437295,-0.00550795,-0.009765601,0.003858215,0.001055259,-0.0050008977,-0.01159509,-0.0011485952,-0.00037702726,0.0040652337,0.014418935,0.002479556,-0.003381934,-0.0033824667,-0.0024808748,0.014417921,0.0040656514,-0.000379224,0.0011476257,0.011595822,0.0050003696,-0.0010560164,0.0038587751,-0.0097655915,0.00550917,-0.010343223,0.0028110535,1.1349285e-06,-5.9201344e-08,-3.5652995e-08,-3.8016566e-08,-6.52227e-08,0.005867439,-0.0014844378,-0.0009790203,-0.003308339,0.011694809,0.0010858028,-0.0055401074,-0.002352013,-0.009433296,-0.0014013879,0.0003696913,-0.015039146,-0.0055096634
HP:0002621,0.008566795,0.010480823,1.4994293e-06,5.064532e-06,-0.013656258,0.005114576,-0.00596848,0.0015650522,0.00047463833,-0.001186738,0.001046972,0.0013422149,0.010788912,-1.6588122e-07,-3.2819582e-07,-9.529827e-08,4.9048115e-08,8.255153e-07,-0.008590452,-0.0061923563,-0.0038661687,-0.0077156825,-0.005894078,0.007474874,0.004054586,-0.015788747,0.012151748,0.0147599885,0.004118451,-0.0005693675,-0.0053698313,0.008814957,0.008814913,0.0053692455,-0.0005692795,0.0041182977,0.014758013,-0.012153004,0.015789734,-0.0040552826,-0.0074749347,-0.0058945348,-0.007715238,0.0038652935,0.006191951,0.008590708,-2.7064611e-06,2.2071703e-07,2.3111042e-09,8.761207e-08,9.2101295e-08,-0.010789253,0.0013415492,-0.0010469181,-0.0011868258,0.000474022,-0.0015646564,-0.005969225,-0.0051137228,0.013656232,-4.9281243e-06,-1.5864714e-06,-0.012710408,-0.004656501
HP:0001433,0.016918063,0.020697977,0.00038713776,-0.0109389275,-0.038569145,-0.035939474,0.03148082,-0.007473994,0.004833066,-0.009562038,-0.0005682519,-0.00056089583,0.0013066912,-8.85701e-08,-1.7011506e-07,-7.6185195e-08,-3.7015887e-08,3.9110816e-08,-0.003332732,0.0010078909,0.0036321203,0.016312648,0.013192038,-0.0016349672,-0.0053325132,-0.008166836,0.00735122,0.006188979,0.012928579,0.007969702,0.02440597,-0.0055968547,-0.0055949474,-0.02440794,0.007966729,0.012928158,0.0061871847,-0.007351776,0.00816801,0.0053332294,0.0016353,0.01319165,0.0163125,-0.00363269,-0.0010071838,0.003332618,-9.418433e-08,1.4921381e-08,-5.903033e-08,5.314611e-09,-4.5124942e-08,-0.0013066474,-0.0005618491,0.00056787214,-0.009561153,0.004835151,0.007469759,0.031486806,0.035935264,0.038568877,0.010939515,-0.00038723333,-0.02510104,-0.009195855
HP:0100546,0.0046922355,0.005740584,-6.564008e-05,0.00027647335,-0.00225273,0.00090995897,-0.00060683297,0.00084617827,-0.00033566976,-0.0032784347,0.0015242364,0.00047260395,0.0028087576,-5.3827932e-08,-1.5926679e-08,-8.587154e-08,3.5493105e-08,7.566198e-08,-0.0008126036,-0.006897104,-0.002253578,-0.0042261127,-0.003911951,0.0068544694,0.005797236,-0.016629541,-0.0018382275,0.0037444388,-0.002339202,0.005480406,-0.0055662207,0.0144535815,0.014452877,0.005565619,0.0054807435,-0.0023393126,0.003742473,0.001836784,0.016629992,-0.0057978947,-0.006854357,-0.003912343,-0.0042256205,0.0022528744,0.006897052,0.0008128183,-8.578926e-07,1.1750454e-07,-1.5333381e-09,5.025691e-08,8.017716e-08,-0.0028089357,0.00047205147,-0.0015243052,-0.003278365,-0.00033584546,-0.0008461358,-0.0006069567,-0.0009098593,0.0022527187,-0.00027644465,6.5622844e-05,-0.006961777,-0.0025504804
HP:0002155,0.013545289,0.016571637,0.00018538255,-0.0009601861,-0.009777151,-0.010362263,0.00706774,-0.0012720823,0.006132688,0.0059372247,-0.003768762,-0.001339217,-0.0037138793,2.467765e-08,5.804714e-08,-6.5676e-08,-7.354028e-09,3.384946e-07,-0.0063451515,-0.0006869914,-0.0076335566,-0.001092683,0.006409741,0.007152903,-0.0052231057,-0.021972144,0.0042526843,0.008508721,0.009542872,-0.0020029014,-0.0074714115,0.00017606038,0.00017682031,0.0074712136,-0.002002975,0.009542193,0.008506471,-0.004253756,0.02197279,0.0052225483,-0.0071533825,0.006409546,-0.001092412,0.0076331487,0.0006880245,0.006345198,1.2935371e-06,-4.3681847e-08,-1.6740644e-08,-5.185928e-08,-1.3281436e-08,0.0037137584,-0.0013378572,0.0037690988,0.0059375316,0.006133224,0.0012703446,0.0070690615,0.010361254,0.009777142,0.00096030894,-0.00018544728,-0.02009691,-0.007362584
HP:0002164,0.012414459,0.015188151,-0.0004984904,0.0016712528,0.007527498,-0.0014178203,0.0036374729,0.0061743874,-0.020773884,-0.008462926,0.005019979,0.00222554,0.0054432903,4.0665217e-08,-1.902963e-07,1.5186325e-08,1.8210581e-08,-3.4828884e-07,0.0010108259,-0.0067137657,0.00828284,-0.03465762,-0.022065,0.009618157,-0.017749237,0.009051659,0.003082991,-0.0013386458,0.00015115549,-0.0035647603,0.0019651286,-0.0004057229,-0.00040466548,-0.0019643249,-0.0035650698,0.00015130249,-0.0013383413,-0.0030822111,-0.009051878,0.017747305,-0.009620221,-0.022065358,-0.034658447,-0.008282971,0.006711198,-0.0010107084,-2.2484005e-06,4.136217e-07,-7.4517095e-09,8.9561e-09,-9.764227e-08,-0.005443823,0.0022234183,-0.0050206287,-0.008462293,-0.02077472,-0.0061713504,0.0036383658,0.0014170121,-0.0075276624,-0.0016713154,0.00049851206,-0.018419124,-0.006747927
HP:0008404,0.0140766725,0.017221758,-6.745383e-05,-0.0003803298,-0.00715847,-0.010152512,0.010975561,-0.0016880389,-0.012624427,0.00012341083,0.00034135094,0.0032299573,0.0034051293,7.0701006e-08,2.6808012e-08,-3.2736033e-08,1.1091403e-08,-4.733508e-07,0.0024450242,-0.0069585885,0.010417497,-0.07814344,-0.04522822,0.026167348,-0.06784398,0.022483524,0.025007471,-0.004411989,-0.020993007,0.007209291,-0.0026559269,0.0155502,0.0155505715,0.0026553366,0.007209079,-0.020991197,-0.004413292,-0.0250068,-0.022484213,0.067840144,-0.026172267,-0.04522858,-0.07814592,-0.010417835,0.006953629,-0.0024448384,-8.892036e-07,2.1130238e-07,-2.9014778e-08,-1.5122254e-07,-3.3520084e-07,-0.0034065144,0.0032295182,-0.0003419592,0.00012423487,-0.012623517,0.0016891268,0.010977806,0.010150682,0.0071583115,0.0003805038,6.743953e-05,-0.020885348,-0.0076514375
HP:0004943,0.0060576545,0.007411065,-4.517939e-05,-0.0001502363,-0.0056646457,-0.0015137596,-0.0008694275,-0.0011634855,0.0070377844,0.0013169006,-0.0012481802,0.00040967728,0.0040906044,-7.040018e-08,-1.786786e-07,-1.2427014e-07,2.5772314e-08,6.3378684e-07,-0.009019802,-0.00334507,-0.006962172,-0.0056949216,0.00051815476,0.009236242,-0.006043286,-0.023132823,0.0074260575,0.012132445,0.007922767,-0.0025187682,-0.009486282,0.0050433055,0.0050441097,0.009485899,-0.0025186215,0.0079220915,0.012129944,-0.007427272,0.023133634,0.0060424227,-0.009236748,0.0005178621,-0.0056946683,0.006961515,0.0033454814,0.009019942,-8.8125876e-07,1.8307645e-07,-2.8001143e-08,-2.9376768e-09,6.4205786e-08,-0.0040909485,0.0004099319,0.0012483473,0.0013169446,0.007037909,0.0011623523,-0.00086941535,0.0015139746,0.005664661,0.00015026508,4.5119756e-05,-0.008987616,-0.0032926472
HP:0031800,0.0027090611,0.0033143265,3.7252437e-05,-0.00015767151,-0.0026570878,-0.001198089,0.00028757713,-0.00083293696,0.0025897052,-0.00022022563,3.7483678e-05,0.0002317437,0.00039498002,-2.1270349e-08,-1.9738602e-08,-4.0299124e-08,4.1923456e-09,7.7045e-08,-0.0010784715,-0.0010226781,-0.0011103885,-0.004050536,-0.0019504032,0.0037767102,-0.0040393034,-0.007306607,0.003706131,0.0031761809,0.0017786742,0.0012726542,-0.0020213106,0.0026107044,0.0026107938,0.0020209427,0.001272489,0.001778609,0.003175119,-0.0037066087,0.0073068575,0.0040389374,-0.0037769396,-0.0019505492,-0.004050529,0.0011102388,0.0010226095,0.0010785323,-8.6182396e-08,3.0274062e-08,-4.7418403e-09,-1.4246183e-08,-7.455858e-10,-0.00039512973,0.00023176902,-3.7469865e-05,-0.00022020358,0.002589835,0.00083246327,0.00028771348,0.0011980936,0.00265709,0.00015768739,-3.72702e-05,-0.004019389,-0.0014725194
HP:0003146,0.0054181186,0.0066286535,-5.9958547e-06,0.00011132797,-0.0015894476,-0.001509117,0.00012695118,6.291643e-05,0.0016337931,-0.0001614758,0.00021231206,-0.0002726763,-9.823892e-05,-5.837674e-09,-2.4878073e-08,-3.5553192e-08,8.541934e-09,4.6021178e-08,0.00074491475,0.00096691126,0.0025700412,-0.0006796456,-0.0022275578,0.001788666,-0.0032274257,-0.005553855,0.0025180231,0.002528124,0.0016014511,0.0010304049,-0.0049573653,0.00044908773,0.00044915196,0.0049570915,0.0010305578,0.0016014312,0.002527338,-0.002518358,0.0055540833,0.003227254,-0.0017887258,-0.0022276437,-0.0006796776,-0.0025699083,-0.0009672917,-0.0007449595,4.1725407e-08,1.9253832e-08,-8.940285e-09,-2.3944156e-09,5.0663864e-09,9.818548e-05,-0.00027271602,-0.00021225003,-0.0001614584,0.0016337815,-6.323612e-05,0.00012710532,0.0015090954,0.0015894518,-0.00011131977,5.9814656e-06,-0.008038768,-0.0029450338
HP:0003233,0.007167492,0.008768888,0.000104157254,-0.0006020805,-0.008567488,-0.0034170384,0.00045000933,-0.0023857877,0.008652628,0.0018490807,-0.0017057374,-0.0003053447,-0.00025777606,-3.4612643e-08,-1.9512287e-08,-8.015831e-08,-1.0124712e-09,2.6040343e-07,-0.0024542415,-0.003253812,-0.003840611,-0.00027293834,0.00015663356,0.00746249,-0.009811223,-0.017543081,0.0071500265,0.007690194,0.0068969745,-0.00060111145,-0.0062435186,-0.00030712647,-0.0003067298,0.006242746,-0.00060150225,0.006896524,0.007688067,-0.007150982,0.017543726,0.009810758,-0.0074627926,0.00015627944,-0.000272946,0.0038399857,0.003254245,0.0024544403,3.8363e-07,-5.420144e-09,-1.7290242e-08,-3.683732e-08,-1.1282786e-08,0.00025753633,-0.0003046944,0.0017059572,0.001849063,0.008653021,0.0023842547,0.00045029842,0.0034170786,0.008567523,0.00060216343,-0.00010420719,-0.010634295,-0.003895918
HP:0030814,0.0027090611,0.0033143265,3.7252437e-05,-0.00015767151,-0.0026570878,-0.001198089,0.00028757713,-0.00083293696,0.0025897052,-0.00022022563,3.7483678e-05,0.0002317437,0.00039498002,-2.1270349e-08,-1.9738602e-08,-4.0299124e-08,4.1923456e-09,7.7045e-08,-0.0010784715,-0.0010226781,-0.0011103885,-0.004050536,-0.0019504032,0.0037767102,-0.0040393034,-0.007306607,0.003706131,0.0031761809,0.0017786742,0.0012726542,-0.0020213106,0.0026107044,0.0026107938,0.0020209427,0.001272489,0.001778609,0.003175119,-0.0037066087,0.0073068575,0.0040389374,-0.0037769396,-0.0019505492,-0.004050529,0.0011102388,0.0010226095,0.0010785323,-8.6182396e-08,3.0274062e-08,-4.7418403e-09,-1.4246183e-08,-7.455858e-10,-0.00039512973,0.00023176902,-3.7469865e-05,-0.00022020358,0.002589835,0.00083246327,0.00028771348,0.0011980936,0.00265709,0.00015768739,-3.72702e-05,-0.004019389,-0.0014725194
HP:0000991,0.0066358005,0.008118407,-2.19387e-05,5.7947822e-05,-0.0022732308,-0.00086239027,-0.0007149207,-0.00044082664,0.0039035832,0.00073273317,-0.00072936947,-0.00043443684,-0.0012477514,-2.594812e-09,2.793692e-08,-3.4325055e-08,-4.985341e-09,1.1668738e-07,-0.0019841525,-0.0013565539,-0.0020579803,-0.00431462,-0.00032193025,0.004337718,-0.0051949187,-0.0096443985,0.0041819103,0.004658252,0.004566685,-0.0016034348,-0.0014838959,-0.00015764449,-0.00015745868,0.0014835895,-0.0016038774,0.004566402,0.0046570837,-0.0041823736,0.0096447775,0.005194463,-0.0043380936,-0.0003220758,-0.004314599,0.0020577037,0.0013566692,0.0019842517,3.6523787e-07,-2.2448052e-08,-1.1957185e-08,-3.116487e-08,-7.989586e-09,0.0012476273,-0.00043405505,0.000729517,0.0007327493,0.0039036097,0.00044023668,-0.0007149403,0.0008625462,0.0022732487,-5.7938007e-05,2.1917805e-05,-0.009845434,-0.0036069131
HP:0000958,0.018572344,0.02272188,-0.0002598446,5.131401e-05,-0.0031611389,-0.011485249,0.0107676545,-0.00032172725,-0.005479526,-0.0052926866,0.0021820434,0.0007734435,0.0025495216,-2.1425877e-09,-5.872734e-08,-2.2497995e-08,-2.2689516e-08,-2.5268199e-07,0.0033685162,0.0019429151,0.008003133,-0.023384726,-0.013243865,8.7882814e-05,-0.009723229,0.010296714,0.003980268,-0.0010118496,-0.0012697992,0.0015052378,-0.010013817,0.0041820053,0.004182092,0.0100136455,0.0015065293,-0.0012691,-0.0010110125,-0.003979649,-0.01029712,0.009722438,-8.9142595e-05,-0.013243799,-0.023385223,-0.008002616,-0.0019448256,-0.003368719,-9.0701286e-07,1.6064511e-07,-4.598212e-08,-2.6015162e-08,-3.695779e-08,-0.0025498602,0.00077233365,-0.0021823992,-0.0052921865,-0.005479115,0.00032157524,0.010769775,0.01148361,0.0031610308,-5.122751e-05,0.00025982756,-0.027555509,-0.01009507
HP:0007759,0.012706596,0.015545566,-0.00020402484,0.0007494539,0.0013166165,-0.0030116625,0.001920017,-0.0007986361,0.0008009608,-0.001394101,0.0009599132,0.0005992144,0.0041295164,-8.242188e-08,-1.2382404e-07,-4.613024e-08,3.3267504e-08,-3.2540748e-09,0.0036542262,0.00056661793,0.0031370828,-0.0032020838,-0.006149629,-0.0012395172,-0.001277943,-0.0016215651,-9.224663e-05,-0.000777473,0.0047530667,-0.0006815746,-0.0058452934,0.003059431,0.0030589814,0.005845129,-0.0006814368,0.0047531636,-0.0007774874,9.237648e-05,0.0016214651,0.0012777906,0.0012395561,-0.006149673,-0.0032021466,-0.0031368542,-0.00056712463,-0.0036542565,-9.556235e-07,1.4191176e-07,-5.0254556e-09,1.6215418e-08,1.5528885e-08,-0.0041296165,0.0005986347,-0.000960006,-0.0013940971,0.0008010937,0.0007983428,0.0019205195,0.0030113785,-0.0013166378,-0.00074946246,0.00020401613,-0.018852573,-0.006906719
HP:0005181,0.008127153,0.0099429805,-0.00014527701,0.00037871674,-0.0022814923,0.0008251178,-0.0025873268,-0.001642718,0.007114585,-7.022987e-06,-0.0010022653,0.00012383852,0.0006316867,-3.744948e-08,1.7484469e-08,-6.8269664e-08,2.8170941e-08,1.934971e-07,-0.0019867867,-0.0038566696,-0.0031860003,-0.005108111,-0.0030475797,0.0056153154,-0.00083964376,-0.016027166,0.002291736,0.005455757,0.00020401248,0.002162294,-0.0027310147,0.00984731,0.009847071,0.0027304597,0.0021621548,0.000203746,0.0054538185,-0.0022928934,0.01602762,0.0008390287,-0.0056154467,-0.0030478265,-0.0051078796,0.0031854785,0.0038567234,0.00198698,2.9583228e-08,1.6595235e-08,3.1074583e-09,1.0374702e-08,2.9385228e-08,-0.0006318948,0.00012417248,0.0010024029,-7.122402e-06,0.007114703,0.0016417591,-0.0025876416,-0.0008246259,0.002281546,-0.0003786999,0.00014526791,-0.012058138,-0.004417548
HP:0025608,0.0027090611,0.0033143265,3.7252437e-05,-0.00015767151,-0.0026570878,-0.001198089,0.00028757713,-0.00083293696,0.0025897052,-0.00022022563,3.7483678e-05,0.0002317437,0.00039498002,-2.1270349e-08,-1.9738602e-08,-4.0299124e-08,4.1923456e-09,7.7045e-08,-0.0010784715,-0.0010226781,-0.0011103885,-0.004050536,-0.0019504032,0.0037767102,-0.0040393034,-0.007306607,0.003706131,0.0031761809,0.0017786742,0.0012726542,-0.0020213106,0.0026107044,0.0026107938,0.0020209427,0.001272489,0.001778609,0.003175119,-0.0037066087,0.0073068575,0.0040389374,-0.0037769396,-0.0019505492,-0.004050529,0.0011102388,0.0010226095,0.0010785323,-8.6182396e-08,3.0274062e-08,-4.7418403e-09,-1.4246183e-08,-7.455858e-10,-0.00039512973,0.00023176902,-3.7469865e-05,-0.00022020358,0.002589835,0.00083246327,0.00028771348,0.0011980936,0.00265709,0.00015768739,-3.72702e-05,-0.004019389,-0.0014725194
HP:0001658,0.013271619,0.016236816,-0.00021164212,-0.001089951,-0.018359609,0.0012522498,-0.0025074922,0.0017355466,0.00020858584,-0.0013462584,-0.0022570293,-0.00052745285,0.0024638795,-6.612385e-08,-4.437842e-08,-3.900439e-08,2.5977569e-08,4.93468e-07,-0.00743521,-0.009016913,-0.0030716842,-0.006967721,-0.0020326949,0.0061838753,0.004975976,-0.0078863865,0.009865413,0.012467471,0.00447752,-0.007993239,0.008378358,0.0063011465,0.0063009644,-0.008378435,-0.007994256,0.004476898,0.0124666365,-0.00986587,0.007887174,-0.00497659,-0.0061838855,-0.0020332397,-0.0069673494,0.0030703875,0.009016714,0.0074355663,-5.038744e-07,-5.757172e-09,2.3948116e-08,2.4243374e-09,5.187667e-08,-0.0024640134,-0.0005270076,0.002257267,-0.0013461929,0.00020810578,-0.0017355322,-0.0025076286,-0.0012518938,0.018359574,0.001090154,0.00021155574,-0.019690875,-0.0072138226
HP:0001712,0.014334971,0.01753776,-0.0004914459,0.0015171133,0.0038010161,0.006733368,-0.0096925665,-0.0058797933,0.031152632,0.001429006,-0.0055958726,-0.0034507718,-0.007882063,1.1660396e-07,4.6096136e-07,-8.2868534e-10,5.5132745e-08,2.9369738e-07,-0.008544602,-0.009604765,-0.018171934,0.0014627497,0.004370059,0.017544556,0.0065379203,-0.024278123,0.006973115,0.01588982,-0.007849993,-0.00013325416,-0.0026345889,0.014331312,0.014331522,0.0026364042,-0.00013189946,-0.007850178,0.015887244,-0.0069756145,0.024279067,-0.0065381904,-0.017544178,0.004369735,0.0014637277,0.01817071,0.009606666,0.008545406,2.4677865e-06,-4.3050736e-07,1.0498449e-07,-7.279137e-08,-1.485175e-08,0.007882193,-0.00344841,0.0055968426,0.0014286302,0.031153278,0.005875549,-0.009694605,-0.0067314846,-0.0038007803,-0.0015172437,0.00049144507,-0.021268569,-0.007791814
HP:0001744,0.028541673,0.03491861,0.0002851896,-0.008172534,-0.055205446,-0.039800096,0.03589334,-0.007390335,0.0047287466,-0.008013091,-0.0042716837,-0.001418324,-0.0045352327,3.1147703e-08,1.5690624e-07,1.1908834e-09,-7.4133206e-09,-2.4908832e-08,-0.0061944625,-0.008153519,0.0013705341,0.011047849,0.0124219665,0.005759157,-0.012976895,-0.0116786435,0.0071658464,0.0060412097,0.013794644,-0.00830403,-0.01304729,-0.016760917,-0.016763115,0.013046756,-0.008304908,0.013793822,0.0060398313,-0.0071661794,0.011679288,0.0129765645,-0.0057590688,0.012421322,0.011047404,-0.001372104,0.008154315,0.0061946237,1.5674284e-06,-1.4151311e-07,7.785723e-09,-8.349402e-08,-9.3190465e-08,0.004535291,-0.0014179596,0.0042714984,-0.008012021,0.004731011,0.0073855994,0.03590004,0.039795186,0.055205207,0.008173358,-0.0002854418,-0.04234684,-0.015513905
HP:0000505,0.027759558,0.033961747,-0.00034553558,0.0018718317,0.002900971,-0.00011030957,-0.008559752,-0.013932407,0.019686343,0.016692918,-0.0045455834,0.0070125205,0.043802835,-5.646442e-07,-1.4888841e-06,-2.4902613e-07,1.7379855e-07,4.0727704e-07,0.04223664,-0.0002709706,0.008634839,0.027725128,-0.051720634,-0.004405621,0.020276055,0.00485197,0.04772345,-0.02040151,0.0031482358,0.0038719082,0.008211733,-0.010801059,-0.010800962,-0.008212691,0.0038681407,0.0031498943,-0.020402228,-0.047721833,-0.0048564035,-0.020274855,0.004410002,-0.05172181,0.027726008,-0.008634255,0.00026920516,-0.042236574,-7.2564635e-06,8.411036e-07,3.5487798e-08,3.2112982e-07,3.3305074e-07,-0.04380307,0.007011384,0.004545336,0.01669126,0.019688427,0.013930028,-0.008560019,0.000111411195,-0.002900787,-0.0018718403,0.0003454884,-0.041186392,-0.015088817
HP:0001873,0.023461109,0.028702915,-7.014349e-05,-0.004240757,-0.052177753,-0.0064480156,0.0042394623,0.002213668,-0.008802444,-0.009756766,-0.0021577254,-0.0029922912,-0.0097506065,-3.5354946e-09,4.0292e-07,-2.7969545e-08,-6.711117e-08,-5.428095e-07,0.011169049,-0.016217778,0.030699726,0.030738363,0.011721246,0.0020374686,-0.017098395,-0.0014576953,0.013666699,0.008903969,0.005092459,-0.0143610155,-0.00030298755,0.025178028,0.025178952,0.00030448879,-0.014360805,0.005091707,0.008904142,-0.013666639,0.0014577641,0.017099738,-0.0020366507,0.011719869,0.030737,-0.03070211,0.016216101,-0.011168858,2.6002554e-06,-3.4194417e-07,2.5353707e-08,-1.0367199e-07,-2.9075228e-08,0.00975091,-0.002991871,0.0021580607,-0.009756555,-0.008803016,-0.0022131985,0.004241097,0.006447413,0.052177638,0.004241417,6.987862e-05,-0.034808874,-0.012752345
HP:0001256,0.022008473,0.026925707,-0.00066968985,0.0024405587,0.014485064,0.0015252791,-0.00583411,-0.00075526163,0.0113114035,-0.007505022,0.0026291923,-0.0021626218,-0.0058415863,1.0966945e-07,1.7345276e-07,1.2614677e-07,3.4236386e-08,-1.7547454e-07,0.0015884327,0.014733427,0.007130572,-0.005395743,0.0054697148,-0.011743187,0.0055804946,0.019963982,-0.008039285,-0.010959665,-0.002977603,-0.021871058,0.0018436989,0.011831509,0.011830922,-0.001842422,-0.021870974,-0.00297817,-0.010956085,0.008041402,-0.019965438,-0.0055808825,0.011743129,0.0054707085,-0.0053955633,-0.0071287383,-0.014733949,-0.0015889503,9.682112e-07,6.3073875e-09,1.7662181e-08,-6.5491776e-08,5.7395845e-08,0.005841911,-0.0021630155,-0.0026289918,-0.007505404,0.0113112,0.00075394346,-0.005834746,-0.001524167,-0.014484972,-0.0024407809,0.00066975923,-0.032653593,-0.011962794
HP:0031936,0.019535288,0.023899943,-0.00042887218,0.0026421864,0.019543063,0.0053387145,-0.008349661,0.0012242049,0.009892388,-0.010981332,0.0075575532,-0.0015093427,-0.006874016,4.599971e-08,7.0487076e-08,3.713026e-08,-4.3780666e-08,-3.0646711e-07,0.00069779664,0.019927021,0.0044700927,-0.004405659,0.008151067,-0.0107279355,0.0054616835,0.0051281755,-0.009730113,-0.008016889,0.0022791298,0.0028602954,-0.0049302476,-0.0010683335,-0.0010682306,0.0049301796,0.002860838,0.0022794507,-0.008015997,0.009730712,-0.00512866,-0.0054615713,0.010727642,0.008152198,-0.0044054957,-0.004467619,-0.019927142,-0.0006983433,5.5500254e-07,-4.710219e-08,-7.3486376e-08,-2.9665035e-08,-7.706728e-09,0.0068742223,-0.0015106957,-0.0075575686,-0.0109816,0.009891803,-0.0012250377,-0.008350972,-0.0053372374,-0.019542975,-0.0026424723,0.00042895012,-0.028984167,-0.01061849
HP:0000718,0.019346524,0.023669027,-0.00048953295,0.0028595105,0.02011293,0.0030724257,-0.009144357,-0.0014368743,0.01689252,-0.009532669,0.005269198,-0.002542164,-0.011115437,4.081256e-08,1.5041836e-07,7.932225e-08,-2.307485e-08,-2.7888626e-07,0.0010655642,0.025994118,0.012711045,-0.0021833142,0.011286971,-0.018669643,0.0050002956,0.029765474,-0.011227143,-0.018848836,-0.0045282664,-0.011415173,-0.0035967762,0.0029853294,0.0029853215,0.003597235,-0.011414454,-0.004528203,-0.018844636,0.011229603,-0.02976763,-0.005000033,0.018669503,0.011288429,-0.0021832837,-0.0127079515,-0.02599496,-0.0010663809,1.8597952e-06,-1.7401084e-07,-5.6872395e-08,-1.6009263e-08,2.6616139e-08,0.011115739,-0.0025427046,-0.0052690357,-0.009533179,0.016892258,0.0014349846,-0.009145495,-0.0030706942,-0.020112785,-0.0028598334,0.0004896466,-0.028704122,-0.010515891
HP:0003141,0.0076623913,0.009374339,0.00019580079,-0.0005455725,-0.008666925,-0.0042383205,0.0007704442,-0.0025898078,0.010187855,0.0030344091,-0.0016757275,-1.9905061e-05,-0.0013138758,-2.7182795e-10,-9.2186006e-08,-1.3069287e-07,-3.252847e-08,4.3959702e-07,-0.0067421985,-0.0037449899,-0.0074236076,-0.00012669299,0.006026394,0.011089558,-0.016508209,-0.030618083,0.0026889886,0.0062454403,0.011151288,-0.0010992634,-0.016244993,-0.005161499,-0.005157748,0.016243521,-0.0010989934,0.011150467,0.006242245,-0.0026903905,0.030618617,0.0165074,-0.011090687,0.006025823,-0.00012667778,0.007422766,0.003745964,0.006742517,5.782567e-07,1.3203628e-07,-5.988727e-08,-4.0241115e-08,-1.2946586e-09,0.0013134705,-1.9159243e-05,0.0016759668,0.003034385,0.010188368,0.0025879815,0.00077074615,0.0042383187,0.008666962,0.0005456347,-0.00019587073,-0.011368542,-0.0041649174
HP:0000519,0.017764453,0.021733498,-0.000660616,0.0022033826,0.004045958,0.0055106087,-0.008307429,-0.032508854,0.00024471348,-0.0044806954,-0.0017427757,-0.005836055,-0.0067137964,6.341398e-08,4.270795e-07,-1.7517282e-08,-2.7117213e-08,-4.7356363e-07,-0.0011613705,-0.017910529,0.027639473,0.03639049,0.014488787,0.0032012463,-0.016651241,0.003483539,0.016043073,0.0059078047,-0.005213317,0.0034081137,-6.726296e-05,0.01863827,0.018639429,6.853786e-05,0.0034091745,-0.005212864,0.0059074755,-0.016043663,-0.003483471,0.016653229,-0.0032003487,0.014487625,0.036389098,-0.027642097,0.017909065,0.0011617226,1.3751702e-06,-2.7591275e-07,8.02569e-08,-9.969604e-08,-5.038329e-08,0.006714376,-0.0058358284,0.0017437817,-0.004480964,0.00024931738,0.03250929,-0.008306411,-0.005507969,-0.0040457025,-0.0022033954,0.00066053733,-0.02635687,-0.009655926
HP:0025175,0.0027090518,0.0033143286,-4.9282564e-05,-6.337301e-05,-0.0015423213,-0.0020451818,0.0017905061,-0.0002045019,-0.00060136034,-1.7293482e-05,-0.0005431913,0.00011368382,0.00039168232,7.5514817e-10,2.5929792e-08,-1.6523664e-08,-4.2330073e-10,6.8838393e-09,-0.0005572848,-0.0020033752,0.0008733382,-0.004455562,-0.0024296008,0.002900594,-0.003249833,-0.001525528,0.00225789,0.0017154648,5.3671047e-05,0.00061826117,-0.0012817971,0.0011907103,0.0011901149,0.0012814956,0.00061816623,5.3746673e-05,0.0017150522,-0.0022580873,0.0015256654,0.0032495288,-0.0029007806,-0.002429734,-0.004455639,-0.0008735971,0.0020030108,0.00055731053,-4.738982e-08,-7.3210424e-09,-1.2145909e-10,-1.1547644e-08,-6.580108e-09,-0.00039176975,0.000113765425,0.00054314104,-1.7178816e-05,-0.0006012821,0.00020442493,0.0017908665,0.0020449169,0.0015423099,6.3404084e-05,4.928375e-05,-0.004019379,-0.001472519
HP:0033542,0.0027090476,0.0033143237,-0.0001414367,0.00053155026,0.0021995045,0.00096759317,-0.00040271643,0.00044627883,-0.0032491556,-0.0023347575,0.0016524717,0.0012858441,0.004732414,-4.1134204e-08,-1.6420623e-07,-2.2020433e-08,1.5469682e-08,-4.3423203e-08,0.0035313445,-0.0008452809,0.001281804,0.0010170204,-0.00547382,-0.00062542316,0.0024036625,-0.00086454867,-0.00026144987,0.0011846325,0.0023669694,-0.00046243536,0.0006895374,-0.0008969877,-0.0008971531,-0.0006897399,-0.00046263772,0.0023668937,0.0011846464,0.00026147766,0.00086470036,-0.0024035785,0.0006256857,-0.0054739085,0.0010170992,-0.0012817854,0.00084506784,-0.0035313417,-1.2229585e-06,1.7471184e-07,-7.908452e-11,3.7340854e-08,4.9040406e-08,-0.004732469,0.0012849777,-0.0016526837,-0.0023348352,-0.0032492871,-0.00044569012,-0.00040271165,-0.00096756796,-0.0021995255,-0.0005315766,0.00014144444,-0.004019383,-0.0014725146
HP:0100806,0.0155623285,0.019039355,0.00022171624,-0.005946936,-0.03326957,-0.040248442,0.037851315,-0.007537393,0.00084014883,-0.007534648,-0.0018096807,0.0005421012,0.00013199262,-3.072428e-08,1.00830555e-07,7.4461994e-08,7.6309526e-08,-2.5908943e-07,-0.002428478,-0.0013913204,-0.0016435782,-0.00072347804,0.00084990694,-0.0002493164,0.004904265,0.0024541272,-0.006745105,-0.0055748443,-0.0073996345,0.0010307984,-0.04257311,-0.0018755243,-0.0018800293,0.04257338,0.0010343998,-0.0073989765,-0.005574249,0.006744829,-0.0024547377,-0.0049045696,0.00024987548,0.0008499652,-0.00072331267,0.001643598,0.0013915704,0.0024283153,2.0356632e-07,-1.0681095e-07,3.913535e-08,6.5372355e-08,4.1307153e-08,-0.00013195339,0.00054153946,0.0018090041,-0.0075335563,0.0008426412,0.0075332858,0.037858147,0.04024312,0.03326931,0.0059475186,-0.00022186525,-0.023089608,-0.008458957
HP:0003811,0.011808506,0.014446815,-0.00014883094,0.00055538304,0.0059763826,-4.1240826e-05,-0.0011499336,0.0027590664,-0.002256951,-0.006554794,0.0044229063,-0.0008179854,-0.00038768232,9.544157e-09,-3.1619972e-08,-1.2391983e-08,6.928146e-09,-9.27292e-08,7.294022e-05,0.0005092183,0.0071013435,0.0038514137,0.0019287661,-0.001797331,0.0022638603,-0.0015499109,-0.0015146647,3.3511722e-05,0.0043409728,0.0012166359,-0.0050332164,-0.00027817095,-0.00027787013,0.0050333445,0.001217041,0.0043410016,3.354161e-05,0.0015147572,0.0015499825,-0.002263622,0.0017974242,0.0019287493,0.0038513686,-0.0071012652,-0.00050976773,-7.3025076e-05,-5.5304196e-07,3.497066e-08,-3.7057188e-09,7.446195e-10,-8.071389e-09,0.0003877803,-0.00081919425,-0.0044229375,-0.0065546217,-0.0022575194,-0.0027586827,-0.0011499373,4.141066e-05,-0.0059764064,-0.00055545964,0.0001488536,-0.017520078,-0.0064185583
HP:0025392,0.002709057,0.0033143251,-0.000105529325,0.0003698538,-0.0006742421,0.0018903178,-0.00087318884,0.0017316436,-0.0033053157,-0.0032461865,0.0016092055,0.00015349811,0.0014141198,-1.3608254e-08,-3.6064634e-08,-3.7023948e-09,1.9410296e-08,-1.6777843e-08,7.264518e-05,-0.0021559233,0.0015106553,-0.0035921899,-0.0024008332,0.0012790591,0.0038069284,-0.003329813,-0.00037686536,0.0019332266,0.00038864953,-0.00044738327,-0.0024813844,0.003198174,0.0031978453,0.0024814152,-0.00044716697,0.00038860008,0.0019329218,0.00037661343,0.003329983,-0.0038072085,-0.0012790865,-0.0024009654,-0.0035920509,-0.0015108048,0.0021555594,-7.2607014e-05,-6.041874e-07,6.7643505e-08,3.6723762e-09,2.5825805e-08,4.262239e-08,-0.0014141637,0.00015291973,-0.0016092765,-0.0032461279,-0.00330565,-0.0017310362,-0.00087337306,-0.0018902309,0.00067421293,-0.000369842,0.00010552138,-0.0040193773,-0.0014725191
HP:0025390,0.0027090518,0.0033143286,-4.9282564e-05,-6.337301e-05,-0.0015423213,-0.0020451818,0.0017905061,-0.0002045019,-0.00060136034,-1.7293482e-05,-0.0005431913,0.00011368382,0.00039168232,7.5514817e-10,2.5929792e-08,-1.6523664e-08,-4.2330073e-10,6.8838393e-09,-0.0005572848,-0.0020033752,0.0008733382,-0.004455562,-0.0024296008,0.002900594,-0.003249833,-0.001525528,0.00225789,0.0017154648,5.3671047e-05,0.00061826117,-0.0012817971,0.0011907103,0.0011901149,0.0012814956,0.00061816623,5.3746673e-05,0.0017150522,-0.0022580873,0.0015256654,0.0032495288,-0.0029007806,-0.002429734,-0.004455639,-0.0008735971,0.0020030108,0.00055731053,-4.738982e-08,-7.3210424e-09,-1.2145909e-10,-1.1547644e-08,-6.580108e-09,-0.00039176975,0.000113765425,0.00054314104,-1.7178816e-05,-0.0006012821,0.00020442493,0.0017908665,0.0020449169,0.0015423099,6.3404084e-05,4.928375e-05,-0.004019379,-0.001472519
HP:0002615,0.012992184,0.01589495,0.00011200085,-0.00012773834,-0.009088497,-0.0045688357,0.003184665,0.0025521666,-0.0012006242,0.03399922,-0.018140221,-0.0015297913,-0.004051704,3.9881783e-08,2.7814386e-07,8.2488484e-08,-5.238652e-08,9.2430787e-07,-0.009125787,-0.021477066,-0.022595763,0.008750221,0.00044188867,0.012715462,-0.01121083,-0.012617512,-0.017872984,-0.007923552,0.011356367,-0.03230197,0.0031955051,0.003632474,0.0036372563,-0.003192883,-0.0323025,0.011354129,-0.007922023,0.017874073,0.012616802,0.011210579,-0.0127158845,0.00044103045,0.008750438,0.022593262,0.02147952,0.009126674,3.2841983e-06,-1.5849463e-07,-8.414834e-08,1.2220674e-08,-1.34287e-07,0.0040519,-0.0015242976,0.018141206,0.033999387,-0.0012003905,-0.0025520653,0.0031848114,0.004567698,0.00908857,0.00012783174,-0.000112086615,-0.019276273,-0.007061926
HP:0002094,0.017133564,0.020961639,-0.0005121315,0.0009228084,-0.005652576,0.0044570807,-0.008785984,-0.0051884074,0.029165199,0.0010137742,-0.00676726,-0.0027053822,-0.008293142,1.997966e-07,3.9514444e-07,5.2295897e-09,-2.8846065e-08,4.642857e-07,-0.01581271,-0.015835755,-0.02316333,-0.008264122,0.0066341115,0.024718903,-0.008525897,-0.03774922,0.005201555,0.013659376,-0.0036703038,0.012964148,0.00400822,0.0016577909,0.0016568074,-0.0040090582,0.012962931,-0.0036707448,0.013653767,-0.0052048797,0.03775124,0.008524691,-0.024720134,0.006633351,-0.0082636,0.023160977,0.015837902,0.01581384,2.5165584e-06,-3.806792e-07,6.743702e-08,-5.729733e-08,-2.8232726e-08,0.008292806,-0.0027026595,0.0067680394,0.0010135487,0.02916575,0.0051843016,-0.008787564,-0.0044553936,0.005652782,-0.00092280435,0.0005120967,-0.02542081,-0.009312991
HP:0010444,0.0066358047,0.008118412,-0.00016719708,-1.0086223e-06,-0.00092707924,-0.0035974425,0.0062793917,0.0026116832,-0.008816407,-0.007358674,0.0038069389,0.00068033184,0.002854903,-2.9673453e-08,-8.1022115e-08,-2.306785e-08,1.5641831e-08,-1.9804618e-07,0.00031934085,-0.0002540211,0.00071572163,-0.0038213502,-0.0011954242,0.0017697191,0.0052236407,-0.005001065,-0.0021476918,0.0017098939,0.0012383919,0.0021904586,-0.002874937,0.0021019457,0.0021019191,0.0028747153,0.0021908267,0.0012384378,0.0017094633,0.0021473314,0.00500126,-0.005223844,-0.0017697609,-0.0011955258,-0.0038210389,-0.00071558607,0.00025385295,-0.00031938258,-1.3002326e-06,1.17989636e-07,2.903092e-09,3.3934207e-08,2.3123077e-08,-0.0028549335,0.0006788728,-0.0038073137,-0.0073582707,-0.008816676,-0.0026108488,0.006280297,0.0035964842,0.00092697114,1.0630121e-06,0.00016718684,-0.009845439,-0.0036069176
HP:0005942,0.0,0.0,0.0,0.0,0.0,0.0,0.0,0.0,0.0,0.0,0.0,0.0,0.0,0.0,0.0,0.0,0.0,0.0,0.0,0.0,0.0,0.0,0.0,0.0,0.0,0.0,0.0,0.0,0.0,0.0,0.0,0.0,0.0,0.0,0.0,0.0,0.0,0.0,0.0,0.0,0.0,0.0,0.0,0.0,0.0,0.0,0.0,0.0,0.0,0.0,0.0,0.0,0.0,0.0,0.0,0.0,0.0,0.0,0.0,0.0,0.0,0.0,0.0,0.0
HP:0002104,0.018373718,0.022478849,-0.00031815842,0.0024050847,0.012902804,0.0032769255,-0.0103715975,-0.0039759763,0.027909013,-0.0022135158,0.00094846985,-0.0037608065,-0.007130001,8.378926e-08,1.4042563e-07,2.507844e-08,2.6556037e-08,3.618997e-08,0.0020292753,0.016757984,0.0022965919,0.008823238,0.0037718674,-0.0069576297,0.0032309473,0.009143092,0.0007967294,-0.0022508889,-0.002057818,-0.008076023,-0.0046102726,0.008808109,0.008809244,0.004611461,-0.008074864,-0.0020577135,-0.0022491412,-0.0007959275,-0.009143849,-0.003230047,0.0069583114,0.0037728145,0.008823469,-0.0022947455,-0.016757788,-0.0020295188,1.793152e-06,-2.7667417e-07,9.377281e-09,-8.615638e-08,-2.7997494e-08,0.007130386,-0.003760162,-0.0009477777,-0.0022141596,0.027909221,0.003972352,-0.010373133,-0.003275055,-0.012902599,-0.002405325,0.00031820408,-0.027260773,-0.009987088
HP:0100750,0.008127162,0.00994298,-0.00012332015,-0.00028290693,-0.0041367617,-0.008988306,0.007002248,-0.0027069235,0.001975437,0.0035073666,-0.0024141667,0.0012606574,0.0072085466,-1.8907564e-07,-2.508832e-07,-5.1337135e-08,1.11640084e-07,-3.408453e-08,0.00927329,0.003347064,0.003477866,0.011444501,-0.015731938,-0.0009836827,0.0035083247,-0.0006753462,0.00782588,0.008438697,-0.0031759746,-4.2424712e-05,-0.038450245,-0.019310439,-0.019314373,0.038449883,-3.9586415e-05,-0.0031754284,0.008438634,-0.007826315,0.0006756752,-0.0035077159,0.0009853388,-0.015732009,0.011444502,-0.0034772945,-0.0033475917,-0.009273458,-9.3906783e-07,4.1419362e-08,1.3406872e-08,8.3165645e-08,1.234179e-07,-0.0072084013,0.001260616,0.002413927,0.0035072614,0.0019761361,0.002705919,0.007003692,0.008987199,0.004136722,0.00028299808,0.00012328269,-0.0120581435,-0.004417554
HP:0011947,0.010836241,0.01325731,0.00015519373,-0.0014987569,-0.012260361,-0.014602704,0.0117755355,-0.0032682559,0.0011945508,0.005118856,-0.0023987645,0.00075217953,0.0050671613,-8.409718e-08,-3.9891526e-07,-1.2968621e-07,3.722969e-08,-3.7727602e-08,0.009641028,0.006194224,0.0033605348,0.0050751315,-0.010857845,-0.0027294892,0.003243108,0.005268587,0.005045816,0.0029670666,-0.006796652,0.005120812,-0.018576266,-0.0051941825,-0.00519015,0.018574907,0.005123664,-0.0067960224,0.0029677262,-0.005045945,-0.0052689593,-0.0032423239,0.0027300015,-0.010858033,0.0050754813,-0.0033597723,-0.006194797,-0.009641212,-3.5597392e-07,2.0986521e-08,-4.8776275e-08,1.2750687e-07,4.4418194e-08,-0.005067326,0.0007522946,0.0023985892,0.005119014,0.001195596,0.00326688,0.01177782,0.014600871,0.0122603085,0.0014989497,-0.00015526768,-0.016077532,-0.005890074
HP:0012735,0.013271605,0.016236817,-1.3267621e-05,-0.0043416265,-0.019278025,-0.018024392,0.013899724,-0.007666575,0.016362479,-0.00044264877,-0.0054029846,-0.0015255625,-0.0038132695,4.3095536e-08,2.5933127e-07,-7.0273984e-08,2.6549104e-08,3.0048028e-08,-0.0047426713,-0.0038880443,-0.007425708,-0.0015369917,0.00060653087,0.011058294,-0.009266496,-0.017205395,0.008541303,0.009276768,-0.00021519247,0.0024610932,-0.017601438,-0.0035424172,-0.0035465274,0.017599596,0.0024612295,-0.00021511973,0.009273975,-0.008542909,0.017206106,0.009265895,-0.011058078,0.00060624524,-0.0015371266,0.007424781,0.0038886776,0.0047428487,1.6179106e-06,-3.5343743e-07,7.6305085e-08,-5.79873e-08,4.6158032e-08,0.0038132241,-0.0015240943,0.005403137,-0.00044238628,0.016364122,0.0076623484,0.013902239,0.018022593,0.019278008,0.0043419274,1.3219411e-05,-0.019690884,-0.007213833
HP:0000765,0.009384441,0.011481162,-0.00026386417,0.0009152759,0.0025948675,0.0009702826,-0.00078934105,0.002604816,-0.0037398264,0.0003539829,2.5148963e-06,0.00010609068,0.0041018473,-6.818656e-08,-1.517553e-07,-1.72126e-08,1.2850213e-08,4.1741544e-07,-0.0066080666,-0.00082339125,-6.586514e-05,-0.006110404,-0.0013180934,0.00095886964,0.0051459926,-0.0069854013,0.002751764,0.0073843827,0.0033074606,-0.00028157514,-7.78703e-05,0.0032736557,0.0032735066,7.792421e-05,-0.00028157252,0.0033073642,0.007383621,-0.0027522247,0.006986082,-0.0051463386,-0.0009590065,-0.0013181523,-0.006110139,6.57297e-05,0.0008229308,0.0066080415,-1.1882497e-06,9.073114e-08,-9.022357e-09,3.9499923e-08,4.9269552e-08,-0.0041019223,0.00010583355,-2.5053089e-06,0.0003541308,-0.0037403058,-0.0026040885,-0.000789445,-0.0009702359,-0.0025948808,-0.0009153103,0.00026386135,-0.013923542,-0.005100944
HP:0030863,0.0,0.0,0.0,0.0,0.0,0.0,0.0,0.0,0.0,0.0,0.0,0.0,0.0,0.0,0.0,0.0,0.0,0.0,0.0,0.0,0.0,0.0,0.0,0.0,0.0,0.0,0.0,0.0,0.0,0.0,0.0,0.0,0.0,0.0,0.0,0.0,0.0,0.0,0.0,0.0,0.0,0.0,0.0,0.0,0.0,0.0,0.0,0.0,0.0,0.0,0.0,0.0,0.0,0.0,0.0,0.0,0.0,0.0,0.0,0.0,0.0,0.0,0.0,0.0
HP:0030830,0.0054180976,0.006628654,-0.0001352001,-0.00025078095,-0.005413876,-0.004812718,0.0025939906,-0.0022536544,0.0077980673,-0.001226512,-0.002122074,-0.00075922743,-0.0008986542,-2.8217036e-08,1.9638587e-07,-1.7200092e-07,-2.4535677e-08,2.039035e-07,-0.0060254275,-0.0060350834,-0.0052500293,-0.005252657,0.0024070854,0.010970994,-0.010049987,-0.022530703,0.0088528935,0.011134221,0.0077697984,0.0070816507,0.0039299186,0.0021095106,0.0021069252,-0.003932655,0.0070799435,0.007769989,0.011130572,-0.008854748,0.022531701,0.010049032,-0.010971129,0.002406745,-0.0052527282,0.005248734,0.006035289,0.006025459,3.824738e-07,-2.3820947e-07,4.4891436e-08,-8.689092e-08,-1.8275793e-08,0.00089842477,-0.0007586021,0.0021222408,-0.0012264738,0.0077984175,0.0022520088,0.0025944917,0.0048124567,0.0054138927,0.0002508708,0.0001351995,-0.008038772,-0.002945052
HP:0000961,0.012706602,0.015545571,-0.00024537742,0.0013207532,0.0002570222,0.006099623,-0.009401977,0.0014456417,0.01039937,0.001651403,-0.0014973532,-0.0013973011,-0.0005194871,7.713262e-09,1.1659096e-07,9.578642e-09,2.610941e-08,7.3086096e-07,-0.0129025495,-0.00087711104,-0.005131024,-0.005280434,0.01007796,0.007677625,0.009188464,-0.022553027,0.0042161644,0.011329811,-0.016395524,0.001293215,-0.002445442,0.01016425,0.010164457,0.0024455737,0.0012940571,-0.016395818,0.011327129,-0.0042183823,0.022553591,-0.009189169,-0.0076777665,0.010077802,-0.005279521,0.0051306644,0.0008772643,0.012902626,2.7233813e-08,-4.5952575e-08,-8.7073715e-10,2.474658e-08,2.3785182e-08,0.0005193079,-0.0013964252,0.0014978674,0.0016512467,0.010398732,-0.001446524,-0.00940344,-0.0060981303,-0.0002569351,-0.0013208251,0.00024536837,-0.018852577,-0.0069067013
HP:0002878,0.017764464,0.021733494,-0.00032245182,0.0015700106,0.0066958587,-0.00040896703,-0.006359921,-0.0034118295,0.023967933,5.0998293e-05,-0.0016763018,-0.0025537834,-0.0070406413,1.0799707e-07,1.1360469e-07,1.691629e-09,-5.3868575e-08,7.834729e-08,-0.0032812078,0.0071952506,-0.01220484,-0.0030074767,0.001861934,0.009074183,-0.0071372436,-0.021093376,0.005660046,0.010645285,0.0044356487,0.021186383,-0.0030705954,-0.011080257,-0.011081127,0.0030692234,0.021186031,0.004436229,0.010641518,-0.005662194,0.021095116,0.0071370355,-0.009074726,0.0018622065,-0.0030071475,0.012205339,-0.007193931,0.003281347,1.9153679e-06,-2.6709498e-07,-6.788685e-09,-6.131257e-08,-8.40306e-08,0.0070404788,-0.00255249,0.0016768523,5.0664083e-05,0.023968339,0.003408421,-0.0063607544,0.00041021977,-0.0066956896,-0.0015701511,0.00032249306,-0.026356857,-0.009655946
HP:0002875,0.013271612,0.016236816,-0.00043307804,0.0010652672,0.0016682022,0.0076213046,-0.009199388,0.003847381,0.0027094295,-0.0011150376,-0.0012937072,-0.0008077228,0.00024280685,2.973521e-09,2.8317535e-07,-9.146311e-08,5.8042026e-08,4.690948e-07,-0.009643538,-0.016203908,-0.0094852755,-0.009296363,0.0025145272,0.020385602,0.017206041,-0.04716414,-0.0038035894,0.012466946,-0.01366387,0.014810624,-0.0029312463,0.027411861,0.027410394,0.002930816,0.014811066,-0.013664171,0.012461197,0.003799255,0.047165394,-0.017207658,-0.020385554,0.002513602,-0.00929484,0.0094834445,0.016204275,0.009644046,-1.8400382e-07,-1.5265266e-08,3.7791008e-08,1.0229256e-07,1.1146398e-07,-0.00024307042,-0.00080720166,0.0012940888,-0.0011149569,0.002708506,-0.0038471238,-0.009200885,-0.007619932,-0.0016681522,-0.0010653486,0.00043308994,-0.019690868,-0.0072138277
